~o
<STREAMINFO> 1 39
<VECSIZE> 39<NULLD><MFCC_E_D_A><DIAGC>
~h "eight"
<BEGINHMM>
<NUMSTATES> 5
<STATE> 2
<MEAN> 39
 -1.082168e+01 -1.783290e+00 1.009435e+01 -1.654308e+01 -1.134867e+01 -5.721108e+00 -3.874738e+00 -7.484387e+00 -3.755497e+00 -1.544513e+00 -7.203838e+00 -3.278475e+00 6.418515e-01 1.050001e-01 3.013206e-01 4.643750e-01 -3.336751e-01 -3.369104e-01 -1.916319e-01 -5.735726e-01 -4.386369e-01 -1.478465e-01 3.463911e-03 -1.709508e-01 3.363748e-02 1.065047e-02 -5.087064e-03 3.020938e-02 -6.252953e-02 1.527137e-01 1.003573e-01 2.841024e-02 2.677314e-02 1.380854e-02 2.061813e-02 -1.402145e-02 4.318581e-02 6.141703e-03 -3.667363e-03
<VARIANCE> 39
 2.598995e+01 4.632536e+01 6.797269e+01 8.710839e+01 7.333772e+01 3.772326e+01 8.991974e+01 4.792549e+01 3.792794e+01 4.314559e+01 3.372503e+01 3.054545e+01 4.749079e-02 5.472556e-01 1.315406e+00 1.217801e+00 3.386308e+00 2.709815e+00 1.422231e+00 2.018979e+00 1.580375e+00 1.696834e+00 1.796781e+00 1.577304e+00 1.521382e+00 1.000000e-02 9.974086e-02 1.876235e-01 2.226617e-01 4.799835e-01 3.674905e-01 2.441704e-01 3.171607e-01 2.703614e-01 2.935737e-01 3.137119e-01 2.599988e-01 2.420316e-01 1.000000e-02
<GCONST> 9.518595e+01
<STATE> 3
<MEAN> 39
 -1.057187e+01 4.051398e+00 1.112903e+01 -7.753526e+00 -5.729718e+00 -5.687404e+00 -8.721532e+00 -1.158614e+01 -4.262576e+00 -3.414751e+00 -6.411529e+00 -1.900764e+00 4.401171e-01 -3.410019e-01 -6.180376e-01 -2.339472e+00 2.382635e+00 2.141966e+00 7.701417e-01 2.090229e+00 1.630913e+00 6.494023e-01 -3.354229e-01 9.627089e-01 -1.968918e-01 -6.532645e-02 -1.763919e-01 -2.595385e-01 -2.101950e-01 -2.928160e-01 7.697298e-02 1.721941e-01 2.162291e-01 4.544764e-01 2.674771e-01 2.214504e-01 1.909597e-01 1.339106e-01 -3.817365e-03
<VARIANCE> 39
 2.665497e+01 1.751758e+01 6.197431e+01 5.489996e+01 4.947108e+01 2.652232e+01 4.018268e+01 3.461590e+01 3.227373e+01 3.547848e+01 3.152848e+01 2.759407e+01 5.009683e-02 1.159228e+00 1.643173e+00 2.581405e+00 3.353643e+00 3.517880e+00 2.405989e+00 3.581562e+00 4.236386e+00 3.446242e+00 3.368601e+00 2.359761e+00 2.576634e+00 1.000000e-02 1.785802e-01 2.131929e-01 6.666747e-01 6.975819e-01 7.760079e-01 4.152949e-01 7.256235e-01 6.220744e-01 5.031838e-01 5.239829e-01 3.923206e-01 4.538474e-01 1.000000e-02
<GCONST> 1.048748e+02
<STATE> 4
<MEAN> 39
 -1.677828e+01 8.092907e-01 1.978844e+00 -3.093301e+00 2.364013e+00 -3.228821e+00 2.784434e+00 -7.689279e-01 4.751441e-01 -1.749835e+00 9.401751e-01 -5.618482e-01 3.428846e-01 -2.701915e-02 -8.161747e-02 -7.667641e-02 3.989666e-02 9.942874e-02 4.408275e-02 1.527367e-01 1.849733e-01 7.142068e-02 3.141000e-02 9.702465e-02 5.519656e-02 -8.726924e-04 3.714971e-02 3.901400e-02 6.430836e-02 -1.957050e-02 -4.973029e-02 -2.142681e-02 -7.920932e-02 -7.950729e-02 -3.899669e-02 -2.097463e-02 -4.881077e-02 -1.761466e-02 1.529842e-03
<VARIANCE> 39
 6.018497e+01 2.370631e+01 3.242584e+01 2.853622e+01 2.804280e+01 2.884083e+01 2.916726e+01 2.949442e+01 2.520060e+01 2.720755e+01 2.701094e+01 1.752166e+01 5.680290e-02 2.559090e+00 1.542177e+00 1.477819e+00 1.676585e+00 1.706488e+00 2.036673e+00 2.166765e+00 2.090004e+00 1.963511e+00 1.939497e+00 1.903993e+00 1.444952e+00 1.000000e-02 3.424973e-01 2.705690e-01 2.886389e-01 3.243870e-01 3.435017e-01 3.818746e-01 4.067807e-01 4.227331e-01 3.905950e-01 3.793763e-01 3.635855e-01 2.850398e-01 1.000000e-02
<GCONST> 9.450532e+01
<TRANSP> 5
 0.000000e+00 1.000000e+00 0.000000e+00 0.000000e+00 0.000000e+00
 0.000000e+00 9.613067e-01 3.869331e-02 0.000000e+00 0.000000e+00
 0.000000e+00 0.000000e+00 8.026954e-01 1.973046e-01 0.000000e+00
 0.000000e+00 0.000000e+00 0.000000e+00 9.649224e-01 3.507763e-02
 0.000000e+00 0.000000e+00 0.000000e+00 0.000000e+00 0.000000e+00
<ENDHMM>
