~o
<STREAMINFO> 1 39
<VECSIZE> 39<NULLD><MFCC_E_D_A><DIAGC>
~h "five"
<BEGINHMM>
<NUMSTATES> 5
<STATE> 2
<MEAN> 39
 -1.601056e+01 -2.966380e+00 -1.406499e-02 -4.227909e+00 2.964198e+00 -1.304662e+00 -6.359221e-01 -1.570494e+00 2.011371e-01 -2.233111e+00 -2.048873e+00 -2.261717e+00 4.220880e-01 5.870108e-01 -4.528258e-01 -5.726718e-01 -7.604378e-01 4.837009e-02 5.037328e-02 -3.536555e-01 -4.218730e-01 -3.344482e-01 -1.869579e-01 -5.157701e-01 -4.064215e-01 2.674834e-02 2.261766e-02 -4.922928e-02 -1.534384e-02 8.288260e-03 4.531260e-02 2.484811e-02 -4.708936e-03 -9.370144e-03 -1.526978e-02 -1.247922e-02 -2.850840e-03 7.560986e-03 -1.431847e-04
<VARIANCE> 39
 8.654073e+01 2.676068e+01 3.931681e+01 6.248763e+01 2.201379e+01 1.990104e+01 2.780406e+01 3.480451e+01 2.876625e+01 2.684504e+01 3.812544e+01 2.423458e+01 4.885081e-02 4.162792e+00 1.563531e+00 2.213573e+00 3.757229e+00 1.890178e+00 1.826955e+00 2.208481e+00 2.656803e+00 2.372853e+00 2.220559e+00 2.799002e+00 2.048774e+00 1.000000e-02 6.187462e-01 2.265689e-01 3.822996e-01 6.836800e-01 3.307676e-01 3.420469e-01 4.126264e-01 4.961463e-01 4.452484e-01 4.160306e-01 5.039313e-01 3.920625e-01 1.000000e-02
<GCONST> 1.014663e+02
<STATE> 3
<MEAN> 39
 -5.177717e+00 -9.710001e+00 -3.149832e+00 -1.332135e+01 -1.328792e+00 -4.206417e+00 -3.484058e+00 -5.612402e+00 -6.362518e+00 -6.644516e+00 -9.762701e+00 -5.201682e+00 7.300938e-01 -1.332377e-01 2.834925e-01 6.417009e-01 1.724306e-01 -6.106945e-01 -3.916610e-01 1.553230e-01 1.106396e-01 -4.341922e-02 1.088933e-01 1.525871e-01 1.516420e-01 -4.769614e-03 8.068610e-03 6.868825e-02 2.524783e-02 4.447547e-02 -2.740222e-02 -3.766648e-02 -1.085507e-02 1.701880e-03 1.572504e-02 9.773126e-03 2.166911e-02 9.545408e-03 -1.194023e-03
<VARIANCE> 39
 2.111420e+01 4.484908e+01 7.728563e+01 5.042233e+01 1.343742e+02 4.891043e+01 5.513626e+01 5.085717e+01 3.908768e+01 5.427383e+01 4.688568e+01 3.451279e+01 1.749568e-02 1.383141e-01 5.898384e-01 6.727195e-01 8.672392e-01 1.585501e+00 8.153211e-01 1.476462e+00 1.371495e+00 1.107127e+00 1.574941e+00 1.057225e+00 9.750232e-01 1.000000e-02 2.220528e-02 6.583730e-02 8.242245e-02 1.305182e-01 1.735755e-01 1.259752e-01 1.916317e-01 1.906700e-01 1.789850e-01 2.190015e-01 1.570804e-01 1.556382e-01 1.000000e-02
<GCONST> 7.868154e+01
<STATE> 4
<MEAN> 39
 -1.399295e+01 -1.254767e+00 4.912411e+00 -3.396580e+00 -1.089980e+00 -4.772596e+00 -1.279066e-01 -1.681894e+00 -1.495805e+00 -2.981671e+00 -1.999909e+00 -1.460090e+00 3.735994e-01 -2.369056e-01 5.652966e-02 -2.007039e-01 4.153068e-01 5.993240e-01 3.612888e-01 9.593059e-02 1.915525e-01 2.807351e-01 -1.086937e-02 2.108747e-01 1.613005e-01 -1.580781e-02 -7.826707e-04 -2.558417e-02 -1.762380e-02 -4.566555e-02 -3.173304e-04 3.805679e-02 1.824417e-02 4.161686e-03 8.910321e-04 6.284448e-03 -1.310929e-02 -9.822624e-03 2.934938e-04
<VARIANCE> 39
 5.978930e+01 2.425645e+01 3.978662e+01 3.783756e+01 6.214313e+01 3.878669e+01 3.243397e+01 4.116209e+01 3.897648e+01 3.247005e+01 3.073863e+01 2.043583e+01 4.089320e-02 1.548153e+00 1.124583e+00 1.364862e+00 1.955426e+00 2.924831e+00 2.348375e+00 2.192590e+00 2.423766e+00 2.269680e+00 2.476448e+00 1.938605e+00 1.590081e+00 1.000000e-02 2.057660e-01 1.710447e-01 2.065517e-01 2.937619e-01 4.190977e-01 4.137441e-01 4.033688e-01 4.216223e-01 4.297168e-01 4.516793e-01 3.619071e-01 3.084937e-01 1.000000e-02
<GCONST> 9.691787e+01
<TRANSP> 5
 0.000000e+00 1.000000e+00 0.000000e+00 0.000000e+00 0.000000e+00
 0.000000e+00 9.478211e-01 5.217890e-02 0.000000e+00 0.000000e+00
 0.000000e+00 0.000000e+00 9.622837e-01 3.771630e-02 0.000000e+00
 0.000000e+00 0.000000e+00 0.000000e+00 9.599824e-01 4.001759e-02
 0.000000e+00 0.000000e+00 0.000000e+00 0.000000e+00 0.000000e+00
<ENDHMM>
