~o
<STREAMINFO> 1 39
<VECSIZE> 39<NULLD><MFCC_E_D_A><DIAGC>
~h "four"
<BEGINHMM>
<NUMSTATES> 5
<STATE> 2
<MEAN> 39
 -1.575889e+01 -1.205914e+00 -4.371856e-01 -4.598740e+00 9.476668e-01 -1.404820e+00 -1.306589e+00 -1.370617e+00 -6.855448e-01 -1.424276e+00 -6.757743e-01 -1.309280e+00 4.077089e-01 6.464267e-01 1.364850e-01 -3.797037e-01 -1.093874e+00 -4.454214e-01 -6.711517e-02 -2.862545e-01 -2.374654e-01 -5.539051e-01 -9.509519e-02 -2.439362e-01 -8.705388e-02 2.369272e-02 4.428892e-02 -1.659210e-04 -1.376114e-02 -6.475255e-02 -1.763200e-02 1.998397e-02 1.092917e-02 1.941461e-02 -1.127576e-02 -6.694535e-03 -2.596391e-02 2.590678e-03 -3.545577e-05
<VARIANCE> 39
 8.609553e+01 2.537006e+01 3.002168e+01 1.002875e+02 3.341425e+01 2.249036e+01 2.738901e+01 3.064118e+01 4.107140e+01 2.422184e+01 2.421274e+01 1.655315e+01 4.513600e-02 3.814287e+00 1.233900e+00 1.361342e+00 5.645345e+00 2.395513e+00 1.912140e+00 2.021912e+00 2.293193e+00 3.116871e+00 2.022053e+00 1.948417e+00 1.499374e+00 1.000000e-02 4.766750e-01 2.196860e-01 2.351019e-01 8.233090e-01 4.218194e-01 3.470667e-01 3.790870e-01 4.494792e-01 5.726139e-01 3.788337e-01 3.620877e-01 2.893946e-01 1.000000e-02
<GCONST> 9.950168e+01
<STATE> 3
<MEAN> 39
 -2.393625e-01 8.612452e-01 -7.336464e+00 -2.171578e+01 -7.057714e+00 -2.181966e+00 -4.723951e+00 -3.828751e+00 -9.296185e+00 -4.040263e+00 -5.505094e+00 -3.646944e+00 7.241054e-01 -3.025580e-02 -6.768560e-02 1.934488e-02 3.575093e-01 1.007412e-01 1.462680e-02 -1.873255e-02 3.996071e-02 1.174232e-01 -7.149817e-02 5.384206e-02 -1.092850e-01 -4.778609e-03 -3.131683e-02 -5.993234e-04 3.193931e-02 1.170629e-01 3.803589e-02 -1.009723e-02 -1.053114e-02 -4.242355e-02 1.379687e-02 -6.624462e-03 2.280284e-02 -1.110427e-02 -1.405106e-03
<VARIANCE> 39
 1.613351e+01 2.539219e+01 5.477136e+01 1.076245e+02 3.879253e+01 4.334912e+01 4.304066e+01 3.422423e+01 4.159717e+01 4.163299e+01 2.940363e+01 3.627848e+01 1.907352e-02 1.125251e-01 3.388419e-01 3.541692e-01 7.488825e-01 6.027644e-01 8.428391e-01 8.155482e-01 9.181404e-01 9.362989e-01 1.044985e+00 8.946183e-01 8.518782e-01 1.000000e-02 2.210987e-02 4.505813e-02 5.951867e-02 1.259699e-01 1.013047e-01 1.315360e-01 1.372049e-01 1.482174e-01 1.578087e-01 1.608656e-01 1.480210e-01 1.372317e-01 1.000000e-02
<GCONST> 6.891429e+01
<STATE> 4
<MEAN> 39
 -7.395640e+00 -2.364306e+00 -1.516609e+00 -4.832163e+00 4.166603e-02 -2.615914e+00 -3.058416e+00 -2.673390e+00 -3.388706e+00 -5.052311e+00 -3.375721e+00 -3.851886e+00 4.182846e-01 -5.060931e-01 -8.486898e-02 3.677434e-01 7.747630e-01 4.224341e-01 9.967268e-02 3.271419e-01 1.358439e-01 3.540880e-01 7.021052e-02 1.534409e-01 1.964679e-01 -2.067950e-02 -2.382567e-03 4.354067e-03 -1.624990e-02 -6.418826e-02 -1.203670e-02 9.978942e-03 2.715859e-02 3.524106e-02 1.561734e-02 3.378621e-02 1.728681e-02 3.189709e-02 -4.390733e-05
<VARIANCE> 39
 3.705751e+01 4.135208e+01 5.286373e+01 9.463419e+01 6.291059e+01 5.282232e+01 5.700513e+01 4.986393e+01 4.744108e+01 4.711288e+01 3.542154e+01 3.462436e+01 5.198700e-02 6.797180e-01 1.090744e+00 1.280802e+00 2.329140e+00 1.899760e+00 2.083412e+00 2.245553e+00 2.452756e+00 2.508604e+00 2.502257e+00 2.064566e+00 2.095002e+00 1.000000e-02 8.967678e-02 1.399149e-01 1.924757e-01 2.796854e-01 2.795478e-01 3.034342e-01 3.606628e-01 4.175537e-01 4.408480e-01 4.070410e-01 3.754773e-01 3.568907e-01 1.000000e-02
<GCONST> 9.803625e+01
<TRANSP> 5
 0.000000e+00 1.000000e+00 0.000000e+00 0.000000e+00 0.000000e+00
 0.000000e+00 9.526302e-01 4.736980e-02 0.000000e+00 0.000000e+00
 0.000000e+00 0.000000e+00 9.562379e-01 4.376209e-02 0.000000e+00
 0.000000e+00 0.000000e+00 0.000000e+00 9.472841e-01 5.271589e-02
 0.000000e+00 0.000000e+00 0.000000e+00 0.000000e+00 0.000000e+00
<ENDHMM>
