~o
<STREAMINFO> 1 39
<VECSIZE> 39<NULLD><MFCC_E_D_A><DIAGC>
~h "nine"
<BEGINHMM>
<NUMSTATES> 5
<STATE> 2
<MEAN> 39
 -6.962749e+00 -8.172776e-01 3.379998e+00 -4.573456e+00 -3.036349e+00 -8.247746e+00 -5.609142e+00 -5.735937e+00 -5.504404e+00 -7.851841e+00 -8.338259e+00 -2.744258e+00 5.627770e-01 3.184997e-01 -7.387541e-01 -5.692054e-01 -5.322153e-01 2.975224e-01 -1.582933e-01 -5.904219e-01 2.571052e-01 -2.599373e-01 -5.071827e-01 -3.674771e-01 -7.833614e-02 2.785952e-02 -3.797891e-02 -8.323505e-02 -7.598662e-02 2.123986e-02 1.347015e-01 1.271149e-01 6.789169e-03 9.367713e-03 6.994701e-02 5.208059e-02 9.306295e-02 -1.734509e-02 -2.485867e-03
<VARIANCE> 39
 3.107734e+01 4.750719e+01 5.083646e+01 4.226440e+01 6.645793e+01 5.077060e+01 4.920128e+01 6.043166e+01 4.105050e+01 4.203352e+01 4.319166e+01 2.665662e+01 5.856896e-02 1.007793e+00 2.961608e+00 2.799037e+00 2.052750e+00 4.521546e+00 4.011030e+00 2.903148e+00 5.419093e+00 2.659832e+00 2.611339e+00 2.493584e+00 2.077168e+00 1.000000e-02 1.773020e-01 4.164126e-01 3.853472e-01 3.636114e-01 5.618689e-01 5.720286e-01 5.375220e-01 9.759857e-01 4.876658e-01 4.991232e-01 4.072174e-01 3.820587e-01 1.000000e-02
<GCONST> 1.076759e+02
<STATE> 3
<MEAN> 39
 -4.868164e+00 -1.090004e+01 -5.082933e+00 -9.610969e+00 4.710821e+00 -4.874228e+00 -1.124932e+01 -2.625783e+00 -7.087222e+00 -1.190952e+01 -7.803022e+00 -4.345492e+00 7.348268e-01 -5.197310e-02 8.573009e-02 3.667236e-01 8.543599e-03 -3.982313e-01 3.383133e-02 3.304838e-01 -1.863426e-02 -1.787893e-01 -3.757079e-02 2.321140e-01 3.131665e-02 -3.353601e-03 -3.413406e-02 9.143344e-02 1.349734e-01 -3.840593e-02 -1.841534e-01 -4.798314e-02 1.210312e-01 2.344651e-02 -6.510103e-02 3.635905e-02 -1.559773e-02 1.737929e-02 -5.717335e-04
<VARIANCE> 39
 2.078711e+01 3.413118e+01 4.174904e+01 4.144078e+01 8.455037e+01 3.881274e+01 6.088665e+01 4.124078e+01 4.378584e+01 5.402309e+01 5.052362e+01 3.799600e+01 1.704946e-02 1.312110e-01 3.131266e-01 6.756293e-01 5.003367e-01 1.368129e+00 7.406394e-01 1.208414e+00 1.049540e+00 1.049815e+00 1.072485e+00 9.298497e-01 9.984509e-01 1.000000e-02 1.643998e-02 5.034515e-02 5.360370e-02 7.474543e-02 1.025501e-01 1.139674e-01 1.413905e-01 1.573175e-01 1.556934e-01 1.738014e-01 1.328042e-01 1.544003e-01 1.000000e-02
<GCONST> 7.131892e+01
<STATE> 4
<MEAN> 39
 -8.863814e+00 -2.975519e-01 6.531441e+00 -6.365524e+00 -3.274647e+00 -3.771611e+00 -3.003081e+00 -5.923543e+00 -6.588250e+00 -5.750206e+00 -6.097835e+00 -4.104095e+00 5.058746e-01 -1.645107e-01 2.604079e-01 7.533249e-02 2.610898e-01 1.430377e-01 1.374106e-01 1.523628e-01 -2.309254e-02 2.566681e-01 2.770117e-01 1.154466e-01 3.304296e-02 -1.328038e-02 3.334837e-03 -3.031679e-02 -5.336528e-02 1.207672e-02 5.899309e-02 3.837913e-04 -3.470607e-02 2.007091e-02 3.864240e-02 -6.532631e-03 1.565421e-03 1.901517e-02 -2.970210e-04
<VARIANCE> 39
 3.251905e+01 3.619961e+01 4.478057e+01 7.880431e+01 7.452451e+01 4.781796e+01 4.737909e+01 5.779866e+01 5.444622e+01 4.701623e+01 4.791250e+01 3.192562e+01 5.815234e-02 5.238377e-01 1.123071e+00 1.483231e+00 2.322675e+00 2.193597e+00 2.225186e+00 2.266036e+00 2.741124e+00 2.222716e+00 2.481565e+00 2.130231e+00 1.700088e+00 1.000000e-02 7.202986e-02 1.189262e-01 1.806889e-01 3.159809e-01 2.674702e-01 3.388402e-01 3.702226e-01 4.143448e-01 3.696346e-01 3.903848e-01 3.594348e-01 2.944595e-01 1.000000e-02
<GCONST> 9.716837e+01
<TRANSP> 5
 0.000000e+00 1.000000e+00 0.000000e+00 0.000000e+00 0.000000e+00
 0.000000e+00 9.350719e-01 6.492806e-02 0.000000e+00 0.000000e+00
 0.000000e+00 0.000000e+00 9.384170e-01 6.158307e-02 0.000000e+00
 0.000000e+00 0.000000e+00 0.000000e+00 9.695744e-01 3.042562e-02
 0.000000e+00 0.000000e+00 0.000000e+00 0.000000e+00 0.000000e+00
<ENDHMM>
