~o
<STREAMINFO> 1 39
<VECSIZE> 39<NULLD><MFCC_E_D_A><DIAGC>
~h "one"
<BEGINHMM>
<NUMSTATES> 5
<STATE> 2
<MEAN> 39
 -4.397439e+00 3.403157e+00 -1.213842e+00 -1.116001e+01 -5.399871e+00 -4.858172e+00 -4.093973e+00 -4.317634e+00 -5.567118e+00 -5.199531e+00 -5.338567e+00 -4.600704e+00 5.277407e-01 6.389581e-01 -2.597548e-01 -7.858914e-01 -1.436550e+00 -1.242372e-01 3.705010e-01 -2.452880e-01 -5.805345e-02 -8.023444e-01 -1.052565e-01 -1.553825e-01 -2.144422e-01 3.450591e-02 -1.167375e-01 -2.206355e-01 -5.271496e-02 1.065757e-01 3.094208e-01 1.785866e-01 -1.398054e-02 -3.009143e-02 3.411464e-02 4.321041e-02 4.607260e-02 9.267029e-03 -2.243688e-03
<VARIANCE> 39
 4.280839e+01 2.319081e+01 3.941468e+01 1.054446e+02 6.109415e+01 3.838829e+01 3.696223e+01 3.854596e+01 4.633025e+01 2.944108e+01 3.238984e+01 2.786383e+01 6.114354e-02 1.421427e+00 2.298286e+00 1.723136e+00 3.423576e+00 4.914478e+00 4.518514e+00 2.611756e+00 2.673308e+00 2.575866e+00 2.368996e+00 2.229178e+00 2.050931e+00 1.000000e-02 2.359340e-01 2.421092e-01 2.449154e-01 6.278292e-01 6.381307e-01 6.158389e-01 5.005291e-01 5.075470e-01 4.875450e-01 4.151032e-01 3.944981e-01 3.732409e-01 1.000000e-02
<GCONST> 1.047289e+02
<STATE> 3
<MEAN> 39
 -3.902655e+00 -8.766471e+00 -7.139802e+00 -1.545694e+01 4.368248e+00 -2.343807e+00 -1.019902e+01 -4.555223e+00 -8.304581e+00 -7.368822e+00 -8.484207e+00 -6.174816e+00 7.397023e-01 -2.477981e-01 -9.466319e-02 6.616645e-01 1.077794e+00 -1.659037e-03 -7.851298e-01 -1.849712e-01 -5.134106e-02 3.642249e-01 -1.890994e-01 -2.771510e-01 1.468648e-01 -7.135371e-03 1.272393e-02 2.565528e-01 1.780615e-01 7.918152e-02 -2.630605e-01 -1.599767e-01 9.198967e-02 -5.203578e-02 1.671768e-02 3.235071e-02 7.048450e-03 4.486570e-02 -1.702945e-03
<VARIANCE> 39
 1.830969e+01 3.334320e+01 4.492984e+01 7.676797e+01 6.983084e+01 6.861658e+01 5.259336e+01 4.649218e+01 5.447425e+01 6.095992e+01 5.358495e+01 3.966896e+01 1.988233e-02 2.176905e-01 2.068085e+00 1.285536e+00 1.247390e+00 3.405881e+00 1.888986e+00 2.107262e+00 2.598238e+00 1.998453e+00 2.179698e+00 1.744484e+00 1.640332e+00 1.000000e-02 3.111217e-02 1.023466e-01 1.285797e-01 2.160354e-01 2.335350e-01 3.343879e-01 2.826368e-01 4.228182e-01 3.339863e-01 3.358733e-01 2.817774e-01 2.576110e-01 1.000000e-02
<GCONST> 9.209628e+01
<STATE> 4
<MEAN> 39
 -8.060405e+00 1.122529e+00 5.242347e+00 -1.437064e+00 -1.624593e+00 -7.333517e+00 -4.141428e+00 -6.551019e+00 -5.156153e+00 -6.399511e+00 -6.442441e+00 -2.594377e+00 5.007963e-01 -2.428234e-01 1.005013e-01 7.515866e-02 2.082912e-01 1.816224e-01 3.157090e-01 2.710690e-01 9.195668e-02 1.769653e-01 1.402572e-01 2.634310e-01 7.122608e-02 -1.338327e-02 -2.704985e-03 -7.782584e-02 -8.374315e-02 -5.992088e-02 5.722905e-02 4.823276e-02 -8.629980e-03 7.468770e-02 2.008485e-02 -6.999417e-03 1.393712e-02 1.467614e-04 -3.091975e-05
<VARIANCE> 39
 3.084494e+01 1.907262e+01 3.984539e+01 2.875004e+01 5.255710e+01 5.161600e+01 4.501356e+01 4.801899e+01 4.808352e+01 4.602805e+01 4.574784e+01 2.679635e+01 6.265429e-02 3.584197e-01 9.027317e-01 1.029700e+00 1.105091e+00 1.496400e+00 1.712608e+00 1.743014e+00 2.357741e+00 1.874709e+00 1.884413e+00 1.722350e+00 1.373474e+00 1.000000e-02 5.365276e-02 1.181351e-01 1.444389e-01 1.875310e-01 2.307959e-01 2.798514e-01 2.966048e-01 3.744491e-01 3.198789e-01 3.361381e-01 3.005503e-01 2.527733e-01 1.000000e-02
<GCONST> 8.857914e+01
<TRANSP> 5
 0.000000e+00 1.000000e+00 0.000000e+00 0.000000e+00 0.000000e+00
 0.000000e+00 9.212306e-01 7.876936e-02 0.000000e+00 0.000000e+00
 0.000000e+00 0.000000e+00 9.359248e-01 6.407525e-02 0.000000e+00
 0.000000e+00 0.000000e+00 0.000000e+00 9.633949e-01 3.660515e-02
 0.000000e+00 0.000000e+00 0.000000e+00 0.000000e+00 0.000000e+00
<ENDHMM>
