~o
<STREAMINFO> 1 39
<VECSIZE> 39<NULLD><MFCC_E_D_A><DIAGC>
~h "seven"
<BEGINHMM>
<NUMSTATES> 5
<STATE> 2
<MEAN> 39
 -2.355745e+01 5.320293e+00 -2.910810e+00 4.013809e-01 9.092764e-01 -1.711609e+00 2.592229e+00 -1.094560e+00 1.207474e+00 -1.916887e+00 1.164737e+00 -9.456343e-01 4.479731e-01 -3.298029e-02 9.434155e-02 -3.506850e-02 -1.372790e-01 -3.004754e-01 -2.762845e-01 -7.815118e-02 -2.219573e-02 -7.513188e-02 -1.042057e-01 -1.289790e-01 6.093936e-02 1.529424e-02 2.741260e-01 -1.395031e-01 5.281874e-02 -1.396432e-01 -1.364227e-01 -1.451674e-01 -8.761150e-02 -7.731714e-03 -5.889031e-02 -7.385746e-02 -1.456261e-01 1.582169e-02 9.187399e-04
<VARIANCE> 39
 5.960409e+01 2.931571e+01 2.656782e+01 2.458886e+01 2.553473e+01 2.829660e+01 2.657516e+01 2.543725e+01 2.425243e+01 2.178068e+01 2.403242e+01 1.515895e+01 3.396434e-02 3.305267e+00 1.544358e+00 1.323037e+00 1.590086e+00 1.851107e+00 2.357735e+00 1.901451e+00 1.823328e+00 1.902136e+00 1.870721e+00 1.992540e+00 1.346888e+00 1.000000e-02 2.908868e-01 2.190337e-01 2.110637e-01 2.838841e-01 3.467650e-01 4.125826e-01 3.654667e-01 3.737675e-01 3.883768e-01 3.771171e-01 4.190003e-01 2.781330e-01 1.000000e-02
<GCONST> 9.207211e+01
<STATE> 3
<MEAN> 39
 -7.683845e+00 -5.502608e+00 4.551261e-01 -1.021930e+01 -5.871448e+00 -1.094548e+01 -3.465091e+00 -7.610651e-01 -3.517658e+00 -8.704853e+00 -1.027196e+01 -2.684892e+00 6.460600e-01 4.074140e-01 -1.390182e-01 1.692597e-01 -9.257348e-02 -8.953275e-02 -1.808870e-01 -1.690617e-01 -7.241303e-02 -1.942504e-01 -1.433541e-01 -2.849604e-01 -7.798551e-02 2.345862e-03 -1.609466e-01 1.057286e-01 1.257239e-03 1.348801e-01 1.106104e-01 1.244435e-01 5.650419e-02 -3.854335e-02 3.164062e-02 6.597992e-02 1.130914e-01 -6.943314e-03 -2.112277e-03
<VARIANCE> 39
 3.186458e+01 4.591922e+01 4.305901e+01 4.849961e+01 5.559478e+01 3.862286e+01 4.831339e+01 4.366856e+01 3.631480e+01 4.619409e+01 3.575653e+01 2.996175e+01 3.857308e-02 2.487510e+00 3.660608e+00 1.354674e+00 4.145948e+00 3.374397e+00 3.308748e+00 2.829138e+00 3.289631e+00 2.401473e+00 2.798931e+00 3.156202e+00 1.705310e+00 1.000000e-02 3.853425e-01 4.044907e-01 2.253428e-01 5.244829e-01 5.120559e-01 6.006822e-01 5.093061e-01 5.310031e-01 4.076254e-01 4.343449e-01 4.502454e-01 2.819227e-01 1.000000e-02
<GCONST> 1.057624e+02
<STATE> 4
<MEAN> 39
 -7.857933e+00 1.308654e+00 5.043048e+00 -1.503558e+00 -2.006001e+00 -7.326540e+00 -3.257693e+00 -5.401309e+00 -4.674469e+00 -6.674065e+00 -5.949663e+00 -2.135052e+00 4.910547e-01 -2.271325e-01 3.299275e-02 -1.745584e-02 2.320189e-01 3.421525e-01 3.818969e-01 1.555200e-01 4.991196e-02 1.542825e-01 1.407367e-01 2.764803e-01 -4.489426e-04 -1.378314e-02 -9.269119e-03 -3.911955e-02 -3.684279e-02 -4.029940e-02 4.757226e-03 6.069019e-03 5.675242e-03 6.702638e-02 2.975713e-02 1.209765e-02 7.575924e-03 1.142745e-02 -3.281572e-04
<VARIANCE> 39
 2.945086e+01 2.049685e+01 3.484686e+01 2.817492e+01 4.800100e+01 4.638103e+01 4.408725e+01 5.311458e+01 4.775012e+01 4.632161e+01 4.317652e+01 2.545657e+01 5.778598e-02 3.343668e-01 8.148043e-01 7.702420e-01 1.098723e+00 1.331265e+00 1.543726e+00 1.787710e+00 2.281067e+00 1.993672e+00 1.844512e+00 1.669478e+00 1.426875e+00 1.000000e-02 5.226317e-02 1.231173e-01 1.237585e-01 1.886132e-01 2.270402e-01 2.690248e-01 3.072014e-01 3.779111e-01 3.403641e-01 3.357888e-01 3.082208e-01 2.592956e-01 1.000000e-02
<GCONST> 8.745949e+01
<TRANSP> 5
 0.000000e+00 1.000000e+00 0.000000e+00 0.000000e+00 0.000000e+00
 0.000000e+00 9.503389e-01 4.966109e-02 0.000000e+00 0.000000e+00
 0.000000e+00 0.000000e+00 9.618775e-01 3.812255e-02 0.000000e+00
 0.000000e+00 0.000000e+00 0.000000e+00 9.615467e-01 3.845330e-02
 0.000000e+00 0.000000e+00 0.000000e+00 0.000000e+00 0.000000e+00
<ENDHMM>
