~o
<STREAMINFO> 1 39
<VECSIZE> 39<NULLD><MFCC_E_D_A><DIAGC>
~h "six"
<BEGINHMM>
<NUMSTATES> 5
<STATE> 2
<MEAN> 39
 -2.397663e+01 5.842399e+00 -3.065295e+00 4.397441e-01 1.053120e+00 -1.737777e+00 2.889046e+00 -1.503308e+00 8.892388e-01 -1.978392e+00 1.207127e+00 -1.210784e+00 4.570777e-01 -4.450146e-01 2.753185e-01 -1.048888e-01 1.584911e-02 -1.367919e-01 -6.917199e-02 4.376685e-02 -7.826477e-02 -5.757730e-02 -2.669752e-03 5.362325e-02 -1.497867e-02 1.482286e-02 2.012858e-01 -8.154294e-02 1.074817e-01 -8.392485e-02 -9.386825e-02 -9.826934e-02 -6.877905e-02 -4.119057e-02 -4.795200e-02 -2.101128e-02 -5.024895e-02 1.313288e-02 -7.990416e-04
<VARIANCE> 39
 6.042694e+01 3.037575e+01 2.476337e+01 2.198188e+01 2.523197e+01 2.588983e+01 2.788366e+01 2.404237e+01 2.170820e+01 2.039565e+01 2.514234e+01 1.477446e+01 3.625415e-02 1.520910e+00 1.207669e+00 1.176097e+00 1.091081e+00 1.232246e+00 1.578483e+00 1.623222e+00 1.607564e+00 1.654142e+00 1.545194e+00 1.465511e+00 1.294244e+00 1.000000e-02 2.492477e-01 1.759859e-01 2.006616e-01 2.253793e-01 3.097883e-01 3.912278e-01 3.557991e-01 3.383055e-01 3.621666e-01 3.190597e-01 3.197677e-01 2.660005e-01 1.000000e-02
<GCONST> 8.695225e+01
<STATE> 3
<MEAN> 39
 -1.238398e+01 -1.231518e+00 7.388263e+00 -1.062281e+01 -1.148575e+01 -1.064071e+01 -1.428959e+00 -6.667530e+00 -4.275491e+00 1.621493e-01 -4.165780e+00 -2.005402e+00 5.794303e-01 5.445184e-01 -3.111804e-01 2.447502e-01 -6.222296e-02 -8.468332e-02 -1.230711e-01 -1.141839e-01 -3.748092e-02 2.023398e-02 9.130386e-02 -7.318164e-02 2.152005e-02 -1.042482e-02 -1.988320e-01 5.522140e-02 -1.753449e-01 1.423339e-01 2.121210e-01 2.043447e-01 9.040298e-02 1.566742e-01 1.019134e-01 -2.838263e-03 1.011585e-01 1.359778e-02 -2.983777e-03
<VARIANCE> 39
 4.316253e+01 4.238209e+01 5.736457e+01 7.199365e+01 7.625886e+01 5.491737e+01 4.450736e+01 5.880260e+01 4.076075e+01 4.081780e+01 3.944889e+01 2.824425e+01 5.686914e-02 4.195848e+00 3.302824e+00 3.955750e+00 6.054567e+00 7.895594e+00 6.221745e+00 3.830954e+00 4.635839e+00 3.501164e+00 3.310502e+00 3.545666e+00 2.396532e+00 1.000000e-02 4.518416e-01 5.083286e-01 4.274078e-01 6.303126e-01 8.850079e-01 8.378047e-01 6.401015e-01 6.850719e-01 5.147313e-01 5.822655e-01 5.312006e-01 4.228192e-01 1.000000e-02
<GCONST> 1.166417e+02
<STATE> 4
<MEAN> 39
 -2.072368e+01 2.757658e+00 -1.368913e+00 3.888600e-01 1.099975e+00 -3.498298e+00 2.970813e+00 -2.407009e-01 1.453629e+00 -2.345479e+00 1.103496e+00 -2.303470e-01 3.902687e-01 2.520329e-02 -3.213644e-02 -4.625286e-02 2.408640e-02 1.453825e-01 1.078450e-01 1.733243e-02 7.478266e-02 2.372376e-02 -5.876753e-02 -1.157514e-02 2.869792e-03 -2.962436e-03 3.631555e-02 -7.920573e-03 4.506211e-02 -3.094606e-02 -4.686220e-02 -2.872306e-02 -2.595684e-02 -5.125042e-02 -2.931816e-02 1.854038e-02 -3.178500e-02 -1.100691e-02 8.064687e-04
<VARIANCE> 39
 6.812894e+01 3.455975e+01 2.790553e+01 2.540533e+01 3.260369e+01 3.249366e+01 3.226199e+01 2.716102e+01 2.425150e+01 2.471567e+01 2.561810e+01 1.725488e+01 4.190656e-02 1.805597e+00 1.520769e+00 1.387341e+00 1.272752e+00 1.638145e+00 2.182378e+00 1.905750e+00 2.042591e+00 1.822882e+00 1.757767e+00 1.682783e+00 1.412632e+00 1.000000e-02 2.135141e-01 2.355091e-01 2.671223e-01 2.471747e-01 3.210901e-01 4.172056e-01 3.698610e-01 4.203469e-01 3.711677e-01 3.502536e-01 3.435499e-01 2.872474e-01 1.000000e-02
<GCONST> 9.215769e+01
<TRANSP> 5
 0.000000e+00 1.000000e+00 0.000000e+00 0.000000e+00 0.000000e+00
 0.000000e+00 9.489247e-01 5.107527e-02 0.000000e+00 0.000000e+00
 0.000000e+00 0.000000e+00 9.452283e-01 5.477165e-02 0.000000e+00
 0.000000e+00 0.000000e+00 0.000000e+00 9.740288e-01 2.597122e-02
 0.000000e+00 0.000000e+00 0.000000e+00 0.000000e+00 0.000000e+00
<ENDHMM>
