~o
<STREAMINFO> 1 39
<VECSIZE> 39<NULLD><MFCC_E_D_A><DIAGC>
~h "three"
<BEGINHMM>
<NUMSTATES> 5
<STATE> 2
<MEAN> 39
 -1.315870e+01 -2.022386e+00 3.472857e+00 -2.803719e+00 -2.933284e+00 -6.981898e+00 -2.712216e+00 -1.117622e+00 -1.687045e+00 -2.669902e+00 -1.420867e+00 -1.637743e+00 4.919677e-01 2.333838e-01 -1.718243e-01 4.888650e-01 -4.122081e-01 -6.887150e-01 -4.423818e-01 -3.380872e-01 -2.411950e-01 -4.625547e-01 1.066405e-01 -1.417675e-01 -1.542686e-01 1.649432e-02 -6.349899e-03 3.625986e-02 4.981798e-02 -6.281072e-02 1.643588e-02 5.615677e-02 -1.442974e-02 -5.341918e-02 9.983229e-03 3.965723e-02 -3.408204e-02 -4.983401e-05 -6.284982e-04
<VARIANCE> 39
 8.384458e+01 4.373994e+01 4.898576e+01 4.073290e+01 7.407401e+01 7.954948e+01 6.752483e+01 4.053302e+01 5.093055e+01 2.882455e+01 3.043163e+01 2.311502e+01 5.444221e-02 2.935475e+00 1.768029e+00 2.733785e+00 2.377376e+00 2.787389e+00 3.591441e+00 4.052711e+00 3.462843e+00 2.860039e+00 2.524917e+00 2.404808e+00 1.939774e+00 1.000000e-02 3.862246e-01 2.864616e-01 4.167034e-01 3.831151e-01 4.952551e-01 6.069794e-01 7.108782e-01 6.538852e-01 5.432822e-01 4.618399e-01 4.744390e-01 3.743216e-01 1.000000e-02
<GCONST> 1.086712e+02
<STATE> 3
<MEAN> 39
 -9.897552e+00 2.606203e+00 1.639667e+01 -1.584293e+01 -1.201045e+01 -8.046354e+00 -1.273547e+01 -1.111720e+01 -8.215942e+00 -6.187211e-01 -7.746205e+00 -3.145832e+00 6.869379e-01 -1.378529e-01 5.328475e-01 -2.299871e-02 6.981719e-02 4.877090e-01 4.267167e-01 -2.335165e-01 -2.726634e-01 2.826729e-01 -2.415956e-01 -2.092788e-01 1.424587e-01 -7.942086e-03 3.690999e-02 -7.579602e-02 -1.014467e-01 1.603603e-01 3.876790e-02 -2.575260e-02 6.258013e-02 7.512073e-02 4.993262e-04 -8.783709e-02 3.896397e-02 -5.083766e-03 -1.184854e-03
<VARIANCE> 39
 2.083814e+01 3.404890e+01 4.809209e+01 5.211251e+01 5.309730e+01 3.639040e+01 4.663589e+01 3.654863e+01 4.205971e+01 3.708347e+01 3.733645e+01 3.556171e+01 2.424764e-02 2.020955e-01 5.632049e-01 6.182891e-01 1.207981e+00 9.447200e-01 9.403483e-01 1.146886e+00 1.167434e+00 1.145571e+00 1.179707e+00 1.062157e+00 9.240397e-01 1.000000e-02 2.534953e-02 5.425907e-02 1.000124e-01 1.408475e-01 1.548798e-01 1.666576e-01 1.910976e-01 1.954247e-01 2.003588e-01 2.111132e-01 1.793631e-01 1.628378e-01 1.000000e-02
<GCONST> 7.618811e+01
<STATE> 4
<MEAN> 39
 -1.231530e+01 1.317730e+00 8.424083e+00 -4.648083e+00 -2.358839e-01 -3.572173e-01 -3.092021e+00 -6.347400e+00 -1.582940e+00 -3.150560e+00 -4.102933e+00 -1.641681e+00 3.580346e-01 -1.816268e-01 -4.442468e-01 -7.543969e-01 6.349111e-01 6.407807e-01 3.640637e-01 8.811798e-01 7.022850e-01 4.657562e-01 8.436293e-02 4.780896e-01 7.523223e-02 -2.434963e-02 7.105093e-04 1.683690e-03 1.110247e-02 -8.134118e-02 -4.594500e-02 -5.774802e-02 -2.977268e-02 3.871879e-02 2.507779e-04 6.549747e-02 4.357670e-02 2.887095e-02 7.750494e-04
<VARIANCE> 39
 3.657661e+01 2.404241e+01 6.335333e+01 4.888205e+01 4.292469e+01 3.871789e+01 5.182829e+01 5.416346e+01 3.656706e+01 3.344154e+01 4.292137e+01 2.653770e+01 4.840090e-02 6.054587e-01 1.008577e+00 1.270557e+00 1.952115e+00 1.988265e+00 2.415024e+00 2.788829e+00 2.454507e+00 2.351518e+00 2.229656e+00 2.366966e+00 2.049995e+00 1.000000e-02 9.458829e-02 1.591066e-01 2.055306e-01 2.804288e-01 3.025512e-01 3.788635e-01 4.340287e-01 4.446507e-01 4.216131e-01 4.121329e-01 4.119282e-01 3.817073e-01 1.000000e-02
<GCONST> 9.644129e+01
<TRANSP> 5
 0.000000e+00 1.000000e+00 0.000000e+00 0.000000e+00 0.000000e+00
 0.000000e+00 9.651598e-01 3.484020e-02 0.000000e+00 0.000000e+00
 0.000000e+00 0.000000e+00 9.506055e-01 4.939448e-02 0.000000e+00
 0.000000e+00 0.000000e+00 0.000000e+00 9.293911e-01 7.060884e-02
 0.000000e+00 0.000000e+00 0.000000e+00 0.000000e+00 0.000000e+00
<ENDHMM>
