~o
<STREAMINFO> 1 39
<VECSIZE> 39<NULLD><MFCC_E_D_A><DIAGC>
~h "two"
<BEGINHMM>
<NUMSTATES> 5
<STATE> 2
<MEAN> 39
 -1.806038e+01 5.014475e-01 5.429713e+00 -7.726994e+00 -1.074289e+00 -6.409670e+00 -2.241833e-02 -1.787598e+00 -4.127417e+00 -5.462164e-01 2.024831e-03 -1.484831e+00 5.629418e-01 4.857762e-01 -7.836062e-02 5.639490e-01 -3.799161e-01 -1.001000e+00 -9.454844e-01 -5.887235e-01 -3.411234e-01 -7.441776e-01 1.738324e-02 -2.647491e-01 -8.371912e-02 2.582449e-02 1.043995e-01 -5.227712e-02 -5.665866e-03 3.859454e-02 -3.359559e-02 -7.952446e-03 -4.389255e-02 7.683140e-03 5.492397e-04 1.096206e-02 -2.894628e-02 6.731448e-03 -2.746311e-03
<VARIANCE> 39
 8.205238e+01 2.828400e+01 5.057224e+01 4.481047e+01 7.005071e+01 5.884271e+01 5.478621e+01 4.809346e+01 5.102310e+01 3.103807e+01 3.433836e+01 1.993101e+01 5.377165e-02 5.581638e+00 2.702568e+00 1.920384e+00 2.790228e+00 3.728862e+00 3.681430e+00 4.912155e+00 3.460460e+00 2.972117e+00 2.706809e+00 2.895713e+00 1.814548e+00 1.000000e-02 7.520662e-01 4.600624e-01 3.169459e-01 5.253199e-01 6.338547e-01 6.627951e-01 8.335413e-01 6.152231e-01 5.490773e-01 5.215032e-01 5.210482e-01 3.417810e-01 1.000000e-02
<GCONST> 1.113398e+02
<STATE> 3
<MEAN> 39
 -5.835856e+00 -4.847326e-01 7.681532e+00 -8.696898e+00 -9.919774e+00 -1.605507e+01 -1.146571e+01 -6.643373e+00 -1.059678e+01 -6.614733e-01 -5.488580e+00 -3.039132e+00 6.948340e-01 1.339037e-01 2.690854e-01 -3.114299e-01 1.839922e-01 3.812094e-01 2.685725e-01 -8.427124e-02 -1.202573e-01 1.377155e-01 -5.730947e-02 -3.879981e-02 -1.717376e-02 -6.784488e-03 -2.487722e-02 2.971894e-02 -1.372014e-02 4.741208e-02 5.143915e-02 7.258496e-02 5.578338e-02 -2.543016e-02 1.707409e-02 -4.506990e-02 8.182803e-03 -2.272064e-03 -1.435303e-03
<VARIANCE> 39
 2.645513e+01 3.442054e+01 7.496309e+01 5.181436e+01 5.131628e+01 5.364658e+01 4.750278e+01 5.398285e+01 5.359027e+01 3.935804e+01 3.307985e+01 3.319388e+01 2.583360e-02 1.255558e-01 3.421169e-01 4.812588e-01 5.360860e-01 7.536668e-01 9.330915e-01 9.777746e-01 1.148113e+00 1.061297e+00 1.137994e+00 1.031256e+00 9.115667e-01 1.000000e-02 2.132264e-02 5.179692e-02 6.871212e-02 8.901581e-02 1.251373e-01 1.463773e-01 1.557105e-01 1.713541e-01 1.629900e-01 1.774848e-01 1.556619e-01 1.459206e-01 1.000000e-02
<GCONST> 7.284632e+01
<STATE> 4
<MEAN> 39
 -8.810379e+00 1.489900e+00 2.631145e+00 -2.582887e+00 8.415705e-01 -3.686643e+00 -3.594131e+00 -5.745852e+00 -3.742220e+00 -2.981168e+00 -3.223489e+00 -1.993572e+00 3.913554e-01 -4.758507e-01 -3.027042e-01 -1.337973e-01 3.696263e-01 5.193527e-01 6.987075e-01 7.562284e-01 4.577309e-01 5.556799e-01 -5.291652e-02 2.299243e-01 1.133373e-01 -2.440732e-02 -1.124909e-02 -4.887206e-02 -2.245471e-03 -4.803225e-02 -3.026224e-02 -3.983013e-02 -5.188175e-03 4.970472e-02 2.760906e-02 6.050767e-02 3.156744e-02 2.281568e-02 1.774529e-04
<VARIANCE> 39
 3.429602e+01 2.400041e+01 4.289684e+01 4.407152e+01 3.718978e+01 3.843535e+01 5.023733e+01 4.960232e+01 5.378775e+01 3.484529e+01 3.389238e+01 2.520174e+01 5.153340e-02 6.520556e-01 8.914184e-01 9.123179e-01 1.592070e+00 1.774054e+00 2.060364e+00 2.355607e+00 2.368846e+00 2.523613e+00 2.421491e+00 2.052804e+00 1.792873e+00 1.000000e-02 9.859831e-02 1.370321e-01 1.518849e-01 2.419778e-01 2.733611e-01 3.072281e-01 3.855412e-01 4.151526e-01 4.373540e-01 4.356804e-01 3.710105e-01 3.223356e-01 1.000000e-02
<GCONST> 9.339139e+01
<TRANSP> 5
 0.000000e+00 1.000000e+00 0.000000e+00 0.000000e+00 0.000000e+00
 0.000000e+00 9.400295e-01 5.997051e-02 0.000000e+00 0.000000e+00
 0.000000e+00 0.000000e+00 9.560730e-01 4.392703e-02 0.000000e+00
 0.000000e+00 0.000000e+00 0.000000e+00 9.307605e-01 6.923949e-02
 0.000000e+00 0.000000e+00 0.000000e+00 0.000000e+00 0.000000e+00
<ENDHMM>
