~o
<STREAMINFO> 1 39
<VECSIZE> 39<NULLD><MFCC_E_D_A><DIAGC>
~h "zero"
<BEGINHMM>
<NUMSTATES> 5
<STATE> 2
<MEAN> 39
 -1.850220e+01 6.218977e+00 1.660984e+00 -2.577648e+00 -2.302581e+00 -7.177401e+00 -8.268607e-01 -6.040273e+00 -2.946476e+00 -3.827520e+00 -2.322516e+00 -2.938060e+00 5.195078e-01 2.307133e-01 -1.281358e-01 4.782429e-01 -5.858861e-01 -7.336255e-01 -5.143189e-01 -3.810575e-01 -2.959798e-01 -4.163840e-01 1.400145e-01 -1.512161e-01 -7.833183e-02 2.231805e-02 6.353144e-02 -1.006517e-01 4.057953e-02 -6.011439e-02 -2.407910e-02 5.325367e-02 -2.343646e-02 4.657673e-02 -9.580324e-03 3.799978e-02 -1.091937e-02 -5.132871e-03 -7.495789e-04
<VARIANCE> 39
 8.476176e+01 4.401855e+01 5.748083e+01 5.926497e+01 6.676302e+01 5.900539e+01 5.221295e+01 4.404316e+01 4.509994e+01 3.511787e+01 3.357608e+01 2.349055e+01 4.304348e-02 3.664344e+00 2.938427e+00 3.182224e+00 3.147680e+00 3.702036e+00 3.992500e+00 3.616057e+00 2.965952e+00 2.662500e+00 2.517098e+00 2.152273e+00 1.878334e+00 1.000000e-02 4.376090e-01 3.283295e-01 3.772426e-01 3.811488e-01 5.869388e-01 7.446895e-01 6.164945e-01 5.515730e-01 4.712573e-01 4.331689e-01 3.802525e-01 3.440560e-01 1.000000e-02
<GCONST> 1.093737e+02
<STATE> 3
<MEAN> 39
 -2.996882e+00 -6.264397e+00 8.966894e-01 -1.068895e+01 -9.571799e+00 -1.187539e+01 -9.016267e+00 -2.550079e+00 -5.352691e+00 -1.603441e+00 -6.418655e+00 -5.943731e+00 7.169727e-01 1.875244e-01 4.110626e-02 -4.205532e-01 8.503399e-02 3.363472e-01 2.550481e-01 -2.772859e-02 5.480471e-02 1.380625e-01 -2.435685e-02 1.129924e-02 -7.356655e-02 -5.000070e-03 -3.482426e-02 6.070647e-02 -6.319642e-03 6.210884e-02 3.916642e-02 4.665887e-03 3.026857e-02 -3.440643e-02 -1.876862e-03 -4.405397e-02 1.849017e-02 1.823413e-02 -1.083057e-03
<VARIANCE> 39
 2.711108e+01 4.814677e+01 9.835645e+01 5.315239e+01 6.403902e+01 5.840283e+01 5.292276e+01 7.472416e+01 4.728949e+01 4.460575e+01 3.918710e+01 3.285573e+01 1.815357e-02 3.356093e-01 9.097804e-01 1.248207e+00 1.503790e+00 1.335590e+00 1.478254e+00 1.691346e+00 2.120724e+00 1.706646e+00 1.646121e+00 1.378901e+00 1.161385e+00 1.000000e-02 3.832596e-02 8.620371e-02 1.385329e-01 1.950814e-01 2.045579e-01 2.269918e-01 2.674241e-01 2.846083e-01 2.726372e-01 2.536018e-01 2.216228e-01 1.778586e-01 1.000000e-02
<GCONST> 8.754867e+01
<STATE> 4
<MEAN> 39
 -8.735550e+00 -1.263590e-01 2.061957e+00 -4.523783e+00 9.092125e-01 -2.329771e+00 -2.212969e+00 -4.712172e+00 -3.048324e+00 -2.869252e+00 -2.836625e+00 -2.734988e+00 3.791977e-01 -4.900410e-01 -4.782875e-02 1.995101e-01 5.446787e-01 3.850523e-01 3.290219e-01 4.936488e-01 2.782642e-01 2.461971e-01 -1.243231e-01 1.531704e-01 2.074881e-01 -1.911371e-02 1.284868e-03 -6.066896e-02 -3.113559e-02 -3.800359e-02 -2.488943e-02 -2.794153e-02 -1.527122e-03 6.613193e-02 5.771240e-02 6.875797e-02 1.241296e-02 1.025921e-02 1.851659e-04
<VARIANCE> 39
 3.737205e+01 2.516117e+01 4.701039e+01 5.482330e+01 3.908479e+01 3.810070e+01 4.111160e+01 4.783934e+01 3.876580e+01 3.529559e+01 3.241731e+01 2.462372e+01 3.917237e-02 6.729291e-01 8.541102e-01 1.063680e+00 1.714724e+00 1.524704e+00 1.808749e+00 2.016489e+00 2.043886e+00 2.272498e+00 2.232609e+00 1.798466e+00 1.591913e+00 1.000000e-02 8.917431e-02 1.266354e-01 1.661848e-01 2.424754e-01 2.449260e-01 2.899564e-01 3.334752e-01 3.554718e-01 3.913047e-01 3.899443e-01 3.152598e-01 2.938430e-01 1.000000e-02
<GCONST> 9.114383e+01
<TRANSP> 5
 0.000000e+00 1.000000e+00 0.000000e+00 0.000000e+00 0.000000e+00
 0.000000e+00 9.538208e-01 4.617915e-02 0.000000e+00 0.000000e+00
 0.000000e+00 0.000000e+00 9.689177e-01 3.108234e-02 0.000000e+00
 0.000000e+00 0.000000e+00 0.000000e+00 9.406794e-01 5.932066e-02
 0.000000e+00 0.000000e+00 0.000000e+00 0.000000e+00 0.000000e+00
<ENDHMM>
