~o
<STREAMINFO> 1 39
<VECSIZE> 39<NULLD><MFCC_E_D_A><DIAGC>
~h "eight"
<BEGINHMM>
<NUMSTATES> 5
<STATE> 2
<MEAN> 39
 -1.081046e+01 -1.782853e+00 1.008689e+01 -1.652547e+01 -1.134208e+01 -5.723501e+00 -3.877349e+00 -7.482654e+00 -3.765793e+00 -1.541953e+00 -7.204790e+00 -3.276790e+00 6.419871e-01 1.038725e-01 3.011272e-01 4.633896e-01 -3.340021e-01 -3.373343e-01 -1.914116e-01 -5.733372e-01 -4.382674e-01 -1.486462e-01 1.660499e-03 -1.694525e-01 3.131517e-02 1.071774e-02 -5.355450e-03 3.043057e-02 -6.164012e-02 1.513335e-01 9.942600e-02 2.924208e-02 2.653258e-02 1.380916e-02 2.128506e-02 -1.329940e-02 4.303664e-02 6.497515e-03 -3.653295e-03
<VARIANCE> 39
 2.597092e+01 4.628841e+01 6.798235e+01 8.720124e+01 7.329809e+01 3.774760e+01 8.991806e+01 4.789830e+01 3.786767e+01 4.318562e+01 3.368971e+01 3.050729e+01 4.742462e-02 5.494031e-01 1.316406e+00 1.225145e+00 3.387528e+00 2.710181e+00 1.423446e+00 2.020640e+00 1.581250e+00 1.698208e+00 1.800317e+00 1.579803e+00 1.521359e+00 2.110994e-03 9.992813e-02 1.875785e-01 2.231623e-01 4.793268e-01 3.669878e-01 2.446277e-01 3.169959e-01 2.707142e-01 2.933306e-01 3.134589e-01 2.605509e-01 2.417239e-01 2.494886e-04
<GCONST> 8.995516e+01
<STATE> 3
<MEAN> 39
 -1.066504e+01 4.110118e+00 1.134001e+01 -7.931099e+00 -5.845881e+00 -5.714477e+00 -8.753925e+00 -1.164329e+01 -4.209376e+00 -3.361924e+00 -6.364406e+00 -1.844087e+00 4.460585e-01 -3.061935e-01 -6.297014e-01 -2.349661e+00 2.439505e+00 2.167088e+00 7.873159e-01 2.116629e+00 1.649629e+00 6.541598e-01 -3.414590e-01 9.497403e-01 -1.921496e-01 -6.740849e-02 -1.650744e-01 -2.739218e-01 -2.190728e-01 -2.885773e-01 8.832280e-02 1.750560e-01 2.118012e-01 4.676760e-01 2.669162e-01 2.165691e-01 1.868252e-01 1.295151e-01 -4.575215e-03
<VARIANCE> 39
 2.693848e+01 1.758619e+01 6.138627e+01 5.645336e+01 5.039325e+01 2.646125e+01 4.081563e+01 3.466424e+01 3.281791e+01 3.540298e+01 3.199966e+01 2.810146e+01 4.901361e-02 1.070148e+00 1.646144e+00 2.572641e+00 3.249780e+00 3.495352e+00 2.395825e+00 3.544679e+00 4.244641e+00 3.436388e+00 3.351315e+00 2.342529e+00 2.588518e+00 1.329971e-03 1.698634e-01 2.048316e-01 6.635414e-01 7.197923e-01 7.878018e-01 4.117346e-01 7.288994e-01 6.145036e-01 5.066623e-01 5.322802e-01 3.850913e-01 4.601480e-01 2.880029e-04
<GCONST> 9.921214e+01
<STATE> 4
<MEAN> 39
 -1.674912e+01 8.114331e-01 1.983220e+00 -3.094816e+00 2.348746e+00 -3.231134e+00 2.749036e+00 -8.013383e-01 4.575145e-01 -1.767748e+00 9.056019e-01 -5.779724e-01 3.420713e-01 -3.325303e-02 -8.152279e-02 -8.276243e-02 3.936535e-02 1.033429e-01 4.371932e-02 1.554644e-01 1.870130e-01 7.355973e-02 3.267948e-02 1.012687e-01 5.550834e-02 -8.211600e-04 3.461672e-02 4.016226e-02 6.400468e-02 -2.012611e-02 -5.038705e-02 -2.193699e-02 -7.710324e-02 -7.975759e-02 -3.833307e-02 -1.985181e-02 -4.705022e-02 -1.659637e-02 1.628551e-03
<VARIANCE> 39
 6.024929e+01 2.367635e+01 3.237447e+01 2.847597e+01 2.805947e+01 2.880812e+01 2.943428e+01 2.977727e+01 2.527827e+01 2.725367e+01 2.728181e+01 1.754498e+01 5.677158e-02 2.571622e+00 1.540202e+00 1.489498e+00 1.673802e+00 1.714609e+00 2.036558e+00 2.173888e+00 2.095002e+00 1.969671e+00 1.944432e+00 1.913940e+00 1.447803e+00 2.639776e-03 3.441995e-01 2.706676e-01 2.898195e-01 3.236523e-01 3.433550e-01 3.820951e-01 4.084173e-01 4.231245e-01 3.909982e-01 3.793471e-01 3.650428e-01 2.851776e-01 3.847577e-04
<GCONST> 8.999612e+01
<TRANSP> 5
 0.000000e+00 1.000000e+00 0.000000e+00 0.000000e+00 0.000000e+00
 0.000000e+00 9.613116e-01 3.868846e-02 0.000000e+00 0.000000e+00
 0.000000e+00 0.000000e+00 7.983281e-01 2.016719e-01 0.000000e+00
 0.000000e+00 0.000000e+00 0.000000e+00 9.650530e-01 3.494706e-02
 0.000000e+00 0.000000e+00 0.000000e+00 0.000000e+00 0.000000e+00
<ENDHMM>
