~o
<STREAMINFO> 1 39
<VECSIZE> 39<NULLD><MFCC_E_D_A><DIAGC>
~h "five"
<BEGINHMM>
<NUMSTATES> 5
<STATE> 2
<MEAN> 39
 -1.578980e+01 -3.142272e+00 -2.042564e-01 -4.469571e+00 2.992165e+00 -1.288649e+00 -7.324043e-01 -1.685098e+00 8.251849e-02 -2.272910e+00 -2.222901e+00 -2.373261e+00 4.287584e-01 5.694005e-01 -4.627881e-01 -5.598839e-01 -7.354972e-01 6.833155e-02 5.746630e-02 -3.459542e-01 -4.148113e-01 -3.358677e-01 -1.909619e-01 -4.986861e-01 -3.917315e-01 2.645461e-02 1.664670e-02 -3.675148e-02 -5.414248e-03 2.032190e-02 4.296530e-02 2.209052e-02 -2.170119e-03 -7.332589e-03 -1.082899e-02 -1.199315e-02 6.585169e-03 1.388087e-02 -4.785870e-04
<VARIANCE> 39
 8.783140e+01 2.846356e+01 4.097221e+01 6.528548e+01 2.281072e+01 2.029070e+01 2.842161e+01 3.545718e+01 2.959846e+01 2.732001e+01 3.999813e+01 2.511055e+01 5.053491e-02 4.102841e+00 1.550570e+00 2.192556e+00 3.736432e+00 1.894547e+00 1.812745e+00 2.193086e+00 2.635046e+00 2.364683e+00 2.211309e+00 2.794157e+00 2.041158e+00 1.597717e-03 6.093761e-01 2.323749e-01 3.827849e-01 6.811698e-01 3.324599e-01 3.405028e-01 4.093206e-01 4.905840e-01 4.425511e-01 4.134885e-01 5.034771e-01 3.916574e-01 2.747680e-04
<GCONST> 9.636135e+01
<STATE> 3
<MEAN> 39
 -5.209482e+00 -9.557353e+00 -2.982283e+00 -1.320434e+01 -1.378521e+00 -4.242188e+00 -3.433456e+00 -5.561820e+00 -6.298505e+00 -6.682070e+00 -9.744977e+00 -5.199137e+00 7.263074e-01 -1.324147e-01 2.992658e-01 6.528723e-01 1.651693e-01 -6.259564e-01 -4.027877e-01 1.563234e-01 1.083877e-01 -2.961299e-02 1.176078e-01 1.554948e-01 1.554483e-01 -4.673997e-03 1.272561e-02 5.900641e-02 1.807653e-02 3.448472e-02 -2.865651e-02 -3.631298e-02 -1.348599e-02 9.642565e-04 1.000098e-02 9.299099e-03 1.654444e-02 5.809863e-03 -9.030332e-04
<VARIANCE> 39
 2.139911e+01 4.463486e+01 7.822076e+01 5.014090e+01 1.334078e+02 4.868768e+01 5.557138e+01 5.167855e+01 3.885177e+01 5.437531e+01 4.663707e+01 3.347358e+01 1.854748e-02 1.361315e-01 5.613177e-01 6.690856e-01 8.488742e-01 1.494888e+00 8.081998e-01 1.481506e+00 1.384290e+00 1.091949e+00 1.584019e+00 1.041820e+00 9.620201e-01 6.845229e-05 2.066384e-02 6.084441e-02 7.811632e-02 1.223361e-01 1.664904e-01 1.239101e-01 1.917617e-01 1.907634e-01 1.778250e-01 2.180176e-01 1.524407e-01 1.511885e-01 1.031540e-05
<GCONST> 6.628648e+01
<STATE> 4
<MEAN> 39
 -1.399786e+01 -1.351992e+00 4.863642e+00 -3.435457e+00 -1.123215e+00 -4.792834e+00 -1.376549e-01 -1.693474e+00 -1.553338e+00 -2.965548e+00 -1.973410e+00 -1.407560e+00 3.758482e-01 -2.350899e-01 5.807244e-02 -2.069314e-01 4.181466e-01 5.936579e-01 3.631798e-01 9.628420e-02 1.966279e-01 2.727041e-01 -1.284072e-02 2.046235e-01 1.541745e-01 -1.618568e-02 -1.247422e-03 -2.370928e-02 -1.739009e-02 -4.433019e-02 1.838407e-03 3.809639e-02 1.902186e-02 3.513216e-03 3.850080e-03 6.724847e-03 -1.485822e-02 -1.087911e-02 2.392138e-04
<VARIANCE> 39
 5.972706e+01 2.634242e+01 3.967517e+01 3.894479e+01 6.354129e+01 3.889605e+01 3.222964e+01 4.060469e+01 3.991759e+01 3.223837e+01 3.057814e+01 2.097635e+01 4.181897e-02 1.553851e+00 1.132722e+00 1.357931e+00 1.972865e+00 3.007012e+00 2.347593e+00 2.192886e+00 2.412174e+00 2.280082e+00 2.463625e+00 1.946953e+00 1.603670e+00 8.414498e-04 2.064450e-01 1.719224e-01 2.071000e-01 2.972716e-01 4.237086e-01 4.150109e-01 4.030970e-01 4.220644e-01 4.300809e-01 4.525001e-01 3.627275e-01 3.103622e-01 1.267527e-04
<GCONST> 9.034499e+01
<TRANSP> 5
 0.000000e+00 1.000000e+00 0.000000e+00 0.000000e+00 0.000000e+00
 0.000000e+00 9.488191e-01 5.118090e-02 0.000000e+00 0.000000e+00
 0.000000e+00 0.000000e+00 9.618592e-01 3.814082e-02 0.000000e+00
 0.000000e+00 0.000000e+00 0.000000e+00 9.598563e-01 4.014374e-02
 0.000000e+00 0.000000e+00 0.000000e+00 0.000000e+00 0.000000e+00
<ENDHMM>
