~o
<STREAMINFO> 1 39
<VECSIZE> 39<NULLD><MFCC_E_D_A><DIAGC>
~h "four"
<BEGINHMM>
<NUMSTATES> 5
<STATE> 2
<MEAN> 39
 -1.544177e+01 -1.142228e+00 -5.552442e-01 -5.069611e+00 7.680686e-01 -1.459418e+00 -1.403949e+00 -1.446008e+00 -8.521091e-01 -1.467448e+00 -7.939507e-01 -1.329226e+00 4.149913e-01 6.304700e-01 1.313301e-01 -3.687961e-01 -1.083057e+00 -4.363253e-01 -6.184803e-02 -2.764874e-01 -2.167320e-01 -5.380308e-01 -9.465643e-02 -2.487380e-01 -8.347122e-02 2.338335e-02 3.490352e-02 1.243095e-04 -7.164246e-03 -4.127068e-02 -1.090070e-02 1.980152e-02 1.420444e-02 1.791550e-02 -5.384942e-03 -1.045897e-02 -2.170544e-02 9.579906e-04 -3.797728e-04
<VARIANCE> 39
 8.904401e+01 2.541647e+01 3.087213e+01 1.092790e+02 3.482187e+01 2.294970e+01 2.805976e+01 3.079623e+01 4.225435e+01 2.462870e+01 2.474213e+01 1.683002e+01 4.706059e-02 3.743557e+00 1.214763e+00 1.347815e+00 5.537777e+00 2.358630e+00 1.886510e+00 2.001643e+00 2.282284e+00 3.087917e+00 1.997624e+00 1.932976e+00 1.489601e+00 1.503155e-03 4.711359e-01 2.172043e-01 2.344533e-01 8.343427e-01 4.198389e-01 3.448186e-01 3.766590e-01 4.456728e-01 5.696196e-01 3.770478e-01 3.604680e-01 2.887760e-01 2.600036e-04
<GCONST> 9.412340e+01
<STATE> 3
<MEAN> 39
 -2.057955e-01 7.732217e-01 -7.341846e+00 -2.155815e+01 -7.043658e+00 -2.215461e+00 -4.765429e+00 -3.825266e+00 -9.246340e+00 -4.014003e+00 -5.549708e+00 -3.814323e+00 7.222418e-01 -2.970498e-02 -7.574367e-02 2.252564e-02 3.967963e-01 1.036095e-01 -6.508252e-03 -3.030345e-02 3.742908e-02 1.277156e-01 -7.923505e-02 5.472489e-02 -1.144042e-01 -4.964988e-03 -2.314347e-02 1.137762e-03 2.743663e-02 9.635679e-02 3.106268e-02 -1.182724e-02 -1.357652e-02 -4.010127e-02 7.830255e-03 -7.650787e-03 1.741249e-02 -7.628015e-03 -1.076534e-03
<VARIANCE> 39
 1.663706e+01 2.605462e+01 5.446080e+01 1.081038e+02 3.884158e+01 4.405614e+01 4.361213e+01 3.549610e+01 4.192995e+01 4.195864e+01 3.010109e+01 3.679123e+01 1.934425e-02 1.145077e-01 3.529154e-01 3.577721e-01 7.557497e-01 6.217961e-01 8.745002e-01 8.237474e-01 9.606172e-01 9.539288e-01 1.071909e+00 9.050126e-01 8.707074e-01 6.264164e-05 1.917239e-02 4.432252e-02 5.693625e-02 1.066973e-01 9.841712e-02 1.311713e-01 1.356489e-01 1.517045e-01 1.562987e-01 1.607503e-01 1.482925e-01 1.391209e-01 8.572735e-06
<GCONST> 5.686332e+01
<STATE> 4
<MEAN> 39
 -7.548497e+00 -2.345225e+00 -1.430157e+00 -4.567413e+00 1.741572e-01 -2.541294e+00 -2.949115e+00 -2.630225e+00 -3.356967e+00 -5.125520e+00 -3.265779e+00 -3.689956e+00 4.138919e-01 -5.164101e-01 -7.478023e-02 3.692520e-01 7.615182e-01 4.297586e-01 1.234503e-01 3.445120e-01 1.242511e-01 3.459131e-01 8.286396e-02 1.679890e-01 2.045763e-01 -2.118908e-02 -2.862484e-03 1.982076e-03 -1.823364e-02 -6.521556e-02 -1.092467e-02 1.194656e-02 2.732434e-02 3.417349e-02 1.678090e-02 4.029684e-02 2.011372e-02 3.009980e-02 -5.302330e-05
<VARIANCE> 39
 3.544497e+01 4.135650e+01 5.320479e+01 9.133340e+01 6.267121e+01 5.232011e+01 5.637480e+01 4.874833e+01 4.750873e+01 4.676757e+01 3.452558e+01 3.413099e+01 5.138566e-02 6.812502e-01 1.089696e+00 1.292713e+00 2.343308e+00 1.900776e+00 2.068592e+00 2.252070e+00 2.423120e+00 2.514171e+00 2.499803e+00 2.058455e+00 2.089668e+00 7.982639e-04 9.048379e-02 1.411307e-01 1.950297e-01 2.835121e-01 2.815757e-01 3.043951e-01 3.636138e-01 4.159205e-01 4.415194e-01 4.082346e-01 3.766397e-01 3.562139e-01 1.044994e-04
<GCONST> 9.083021e+01
<TRANSP> 5
 0.000000e+00 1.000000e+00 0.000000e+00 0.000000e+00 0.000000e+00
 0.000000e+00 9.537101e-01 4.628994e-02 0.000000e+00 0.000000e+00
 0.000000e+00 0.000000e+00 9.560609e-01 4.393908e-02 0.000000e+00
 0.000000e+00 0.000000e+00 0.000000e+00 9.461474e-01 5.385261e-02
 0.000000e+00 0.000000e+00 0.000000e+00 0.000000e+00 0.000000e+00
<ENDHMM>
