~o
<STREAMINFO> 1 39
<VECSIZE> 39<NULLD><MFCC_E_D_A><DIAGC>
~h "nine"
<BEGINHMM>
<NUMSTATES> 5
<STATE> 2
<MEAN> 39
 -7.032026e+00 -7.464092e-01 3.468167e+00 -4.526360e+00 -3.126146e+00 -8.279236e+00 -5.563523e+00 -5.762861e+00 -5.534527e+00 -7.815586e+00 -8.313511e+00 -2.672308e+00 5.600064e-01 3.243052e-01 -7.469857e-01 -5.712243e-01 -5.529887e-01 2.877491e-01 -1.751126e-01 -6.047414e-01 2.726151e-01 -2.712929e-01 -5.220082e-01 -3.814088e-01 -7.169939e-02 2.866051e-02 -3.734686e-02 -9.101678e-02 -8.326388e-02 2.014394e-02 1.410373e-01 1.311199e-01 9.563613e-03 1.080172e-02 6.981365e-02 5.124692e-02 9.234060e-02 -1.562396e-02 -2.550123e-03
<VARIANCE> 39
 3.099546e+01 4.790889e+01 4.975602e+01 4.217037e+01 6.679236e+01 5.099997e+01 4.929179e+01 6.067912e+01 4.125314e+01 4.138442e+01 4.332939e+01 2.609889e+01 5.879888e-02 1.005417e+00 2.976572e+00 2.829907e+00 2.051883e+00 4.572237e+00 4.032630e+00 2.930608e+00 5.432725e+00 2.672883e+00 2.604879e+00 2.499755e+00 2.088754e+00 1.550968e-03 1.765807e-01 4.129828e-01 3.845370e-01 3.659275e-01 5.643145e-01 5.769699e-01 5.452120e-01 9.795942e-01 4.920395e-01 4.988469e-01 4.095633e-01 3.843627e-01 2.593270e-04
<GCONST> 1.022278e+02
<STATE> 3
<MEAN> 39
 -5.352876e+00 -8.515876e+00 -2.042728e+00 -9.905540e+00 1.072644e+00 -4.643528e+00 -9.131426e+00 -3.560088e+00 -7.796814e+00 -1.083451e+01 -7.740283e+00 -4.662434e+00 7.316248e-01 -8.050234e-02 2.932288e-01 4.559307e-01 -8.757806e-02 -4.134164e-01 1.320072e-01 2.466243e-01 -2.126163e-01 -1.001591e-01 2.139365e-01 1.178188e-01 -9.559518e-02 -3.363594e-03 -1.989397e-02 7.023112e-02 7.558520e-02 -3.562954e-03 -8.434995e-02 -4.572348e-02 4.045922e-02 1.850010e-02 -1.987353e-02 1.751858e-02 -2.479978e-02 1.657660e-02 -4.606300e-04
<VARIANCE> 39
 2.102784e+01 4.794885e+01 6.649895e+01 4.628952e+01 1.089578e+02 3.915040e+01 6.703595e+01 4.559829e+01 4.191171e+01 5.542685e+01 4.704031e+01 3.531850e+01 1.595951e-02 1.336878e-01 5.178332e-01 7.798998e-01 7.469343e-01 1.466343e+00 8.982005e-01 1.411680e+00 1.268287e+00 1.204112e+00 1.413867e+00 1.055480e+00 1.095439e+00 4.116523e-05 1.726643e-02 5.780244e-02 7.114942e-02 9.858131e-02 1.390358e-01 1.319359e-01 1.870434e-01 1.834224e-01 1.845198e-01 2.007411e-01 1.559812e-01 1.681601e-01 4.640865e-06
<GCONST> 6.380598e+01
<STATE> 4
<MEAN> 39
 -9.326602e+00 1.301185e-01 6.605347e+00 -5.369625e+00 -2.038315e+00 -3.743460e+00 -2.911486e+00 -5.892441e+00 -5.849443e+00 -5.261215e+00 -5.794041e+00 -3.807219e+00 4.575293e-01 -1.643691e-01 1.203949e-01 -7.350005e-02 4.023871e-01 2.889220e-01 8.537244e-02 1.802314e-01 1.326123e-01 2.924739e-01 1.390034e-01 1.859068e-01 1.344671e-01 -1.554180e-02 -6.947041e-04 -3.718325e-02 -4.373043e-02 -4.577308e-03 2.948711e-02 9.003381e-03 -4.656926e-03 2.248886e-02 2.542051e-02 3.982538e-04 1.473676e-02 1.867131e-02 -3.159255e-04
<VARIANCE> 39
 3.437649e+01 3.625425e+01 4.581637e+01 7.789062e+01 7.266735e+01 4.971208e+01 4.889902e+01 5.979558e+01 5.665212e+01 4.569141e+01 4.961000e+01 3.259635e+01 5.539695e-02 6.214902e-01 1.154248e+00 1.493670e+00 2.443344e+00 2.201223e+00 2.446849e+00 2.339720e+00 2.917490e+00 2.367574e+00 2.560554e+00 2.303609e+00 1.757016e+00 6.906447e-04 8.634758e-02 1.340720e-01 2.056554e-01 3.524974e-01 2.945719e-01 3.752885e-01 3.918506e-01 4.569548e-01 3.977128e-01 4.203538e-01 3.916199e-01 3.153584e-01 9.104255e-05
<GCONST> 9.181146e+01
<TRANSP> 5
 0.000000e+00 1.000000e+00 0.000000e+00 0.000000e+00 0.000000e+00
 0.000000e+00 9.336979e-01 6.630215e-02 0.000000e+00 0.000000e+00
 0.000000e+00 0.000000e+00 9.555562e-01 4.444387e-02 0.000000e+00
 0.000000e+00 0.000000e+00 0.000000e+00 9.628587e-01 3.714132e-02
 0.000000e+00 0.000000e+00 0.000000e+00 0.000000e+00 0.000000e+00
<ENDHMM>
