~o
<STREAMINFO> 1 39
<VECSIZE> 39<NULLD><MFCC_E_D_A><DIAGC>
~h "one"
<BEGINHMM>
<NUMSTATES> 5
<STATE> 2
<MEAN> 39
 -4.449376e+00 3.311596e+00 -1.183854e+00 -1.107305e+01 -5.253432e+00 -4.827455e+00 -4.191908e+00 -4.384645e+00 -5.572862e+00 -5.188146e+00 -5.213913e+00 -4.537432e+00 5.305426e-01 6.414253e-01 -2.635329e-01 -7.733975e-01 -1.422897e+00 -1.243340e-01 3.578216e-01 -2.514002e-01 -6.441543e-02 -7.899966e-01 -8.464651e-02 -1.556051e-01 -2.019713e-01 3.501013e-02 -1.158529e-01 -2.163507e-01 -5.204010e-02 1.015937e-01 3.038780e-01 1.732695e-01 -1.138909e-02 -3.010782e-02 3.604622e-02 3.870279e-02 3.518228e-02 3.176308e-03 -2.418370e-03
<VARIANCE> 39
 4.250591e+01 2.485368e+01 3.899957e+01 1.066116e+02 6.367562e+01 3.913138e+01 3.685189e+01 3.780238e+01 4.734121e+01 2.898136e+01 3.413389e+01 2.863337e+01 6.152870e-02 1.413760e+00 2.339493e+00 1.730513e+00 3.452159e+00 4.963320e+00 4.503187e+00 2.643092e+00 2.671625e+00 2.593342e+00 2.399185e+00 2.243140e+00 2.071223e+00 1.504630e-03 2.354694e-01 2.468041e-01 2.462341e-01 6.292160e-01 6.433444e-01 6.294158e-01 5.039351e-01 5.067621e-01 4.925466e-01 4.146308e-01 4.074934e-01 3.825654e-01 2.385236e-04
<GCONST> 9.949593e+01
<STATE> 3
<MEAN> 39
 -3.757478e+00 -8.508756e+00 -7.138696e+00 -1.527330e+01 4.149320e+00 -2.381597e+00 -1.013313e+01 -4.608457e+00 -8.216784e+00 -7.425764e+00 -8.503282e+00 -6.202531e+00 7.424420e-01 -2.467715e-01 -1.148364e-01 6.275178e-01 1.030289e+00 2.364036e-02 -7.670885e-01 -1.921056e-01 -1.082038e-02 3.455961e-01 -2.170489e-01 -2.815495e-01 1.297732e-01 -6.897619e-03 1.299541e-02 2.493428e-01 1.739988e-01 8.102109e-02 -2.594003e-01 -1.574599e-01 9.412821e-02 -4.935762e-02 1.527275e-02 3.822021e-02 1.485474e-02 4.873085e-02 -1.603142e-03
<VARIANCE> 39
 1.796740e+01 3.463326e+01 4.405473e+01 7.699267e+01 7.063000e+01 6.661297e+01 5.397930e+01 4.704823e+01 5.425896e+01 6.103493e+01 5.123240e+01 3.810702e+01 1.929051e-02 2.097506e-01 1.922876e+00 1.242171e+00 1.204821e+00 3.214667e+00 1.862127e+00 2.025228e+00 2.462048e+00 1.969137e+00 2.081643e+00 1.670823e+00 1.609328e+00 1.858030e-04 2.987447e-02 9.946357e-02 1.262136e-01 2.085644e-01 2.242932e-01 3.139566e-01 2.717474e-01 4.129318e-01 3.243711e-01 3.322662e-01 2.673672e-01 2.464669e-01 1.625999e-05
<GCONST> 8.069924e+01
<STATE> 4
<MEAN> 39
 -8.160717e+00 1.085594e+00 5.336583e+00 -1.456531e+00 -1.603115e+00 -7.369483e+00 -4.087534e+00 -6.508524e+00 -5.179748e+00 -6.366821e+00 -6.476918e+00 -2.576159e+00 4.959874e-01 -2.465114e-01 1.163680e-01 8.666247e-02 2.266392e-01 1.689596e-01 3.194328e-01 2.827554e-01 7.269873e-02 1.827800e-01 1.499417e-01 2.711700e-01 7.539401e-02 -1.391434e-02 -3.144742e-03 -7.786877e-02 -8.375618e-02 -6.008098e-02 5.958924e-02 5.056931e-02 -1.185968e-02 7.433092e-02 2.001258e-02 -8.717509e-03 1.449035e-02 3.970676e-04 1.082644e-05
<VARIANCE> 39
 3.054493e+01 1.978855e+01 3.943874e+01 2.959928e+01 5.243031e+01 5.227839e+01 4.439514e+01 4.829517e+01 4.792653e+01 4.603190e+01 4.605134e+01 2.713900e+01 6.184306e-02 3.615893e-01 9.491818e-01 1.076461e+00 1.166133e+00 1.567285e+00 1.742242e+00 1.762318e+00 2.439908e+00 1.893862e+00 1.916437e+00 1.751945e+00 1.382849e+00 6.598749e-04 5.442068e-02 1.199050e-01 1.457839e-01 1.903001e-01 2.345412e-01 2.850982e-01 3.006838e-01 3.801713e-01 3.226224e-01 3.381855e-01 3.030757e-01 2.543900e-01 8.324005e-05
<GCONST> 8.158609e+01
<TRANSP> 5
 0.000000e+00 1.000000e+00 0.000000e+00 0.000000e+00 0.000000e+00
 0.000000e+00 9.216024e-01 7.839761e-02 0.000000e+00 0.000000e+00
 0.000000e+00 0.000000e+00 9.367625e-01 6.323750e-02 0.000000e+00
 0.000000e+00 0.000000e+00 0.000000e+00 9.630337e-01 3.696635e-02
 0.000000e+00 0.000000e+00 0.000000e+00 0.000000e+00 0.000000e+00
<ENDHMM>
