~o
<STREAMINFO> 1 39
<VECSIZE> 39<NULLD><MFCC_E_D_A><DIAGC>
~h "seven"
<BEGINHMM>
<NUMSTATES> 5
<STATE> 2
<MEAN> 39
 -2.366388e+01 5.541477e+00 -3.153405e+00 5.682346e-01 1.012313e+00 -1.529252e+00 2.557579e+00 -1.139684e+00 1.220524e+00 -1.937408e+00 1.122980e+00 -1.083177e+00 4.450869e-01 -4.377860e-01 2.378323e-01 -1.412015e-01 3.673370e-02 -9.032235e-02 -3.109903e-02 5.104677e-02 3.650349e-02 -1.418603e-02 7.419103e-03 4.495171e-02 2.170028e-02 1.470357e-02 2.242230e-01 -1.041961e-01 8.086890e-02 -8.650248e-02 -7.330848e-02 -9.128143e-02 -5.857791e-02 -1.356027e-02 -3.164057e-02 -4.279622e-02 -7.092343e-02 2.905001e-02 -1.120800e-03
<VARIANCE> 39
 6.260328e+01 2.831231e+01 2.580759e+01 2.392877e+01 2.549223e+01 2.783599e+01 2.672426e+01 2.549955e+01 2.398178e+01 2.159608e+01 2.409282e+01 1.458594e+01 3.533356e-02 1.530378e+00 1.269212e+00 1.152323e+00 1.137592e+00 1.236899e+00 1.562872e+00 1.675364e+00 1.709651e+00 1.770190e+00 1.619349e+00 1.490299e+00 1.269573e+00 1.002240e-03 2.468904e-01 1.800117e-01 1.861167e-01 2.335217e-01 2.879204e-01 3.662132e-01 3.427766e-01 3.563915e-01 3.661652e-01 3.486400e-01 3.434176e-01 2.613105e-01 1.192050e-04
<GCONST> 8.076685e+01
<STATE> 3
<MEAN> 39
 -1.059024e+01 -4.999249e+00 8.145360e-01 -9.561158e+00 -5.018697e+00 -1.007660e+01 -2.221341e+00 -9.720910e-01 -2.549367e+00 -7.208901e+00 -8.253263e+00 -2.091584e+00 5.992158e-01 1.019820e+00 -6.229004e-01 1.911514e-01 -6.151184e-01 -4.816566e-01 -5.770233e-01 -2.907339e-01 3.141351e-02 -2.474106e-01 -3.870382e-01 -7.236567e-01 -4.829492e-02 9.181199e-03 -1.572402e-01 3.114484e-02 -6.127227e-02 6.663728e-02 8.366507e-02 1.327562e-01 7.871164e-02 3.046569e-02 -1.166708e-02 1.474902e-02 3.881958e-02 -2.244986e-02 -1.430444e-04
<VARIANCE> 39
 5.411741e+01 6.323693e+01 4.218137e+01 6.329821e+01 6.657831e+01 4.336047e+01 4.645526e+01 3.694757e+01 3.602760e+01 4.417117e+01 4.770989e+01 3.172214e+01 4.661996e-02 4.781596e+00 4.389191e+00 1.573312e+00 5.224475e+00 4.635244e+00 4.765973e+00 3.427606e+00 3.253225e+00 2.856691e+00 3.183878e+00 4.192942e+00 2.049867e+00 2.474975e-03 6.647657e-01 5.382867e-01 2.702591e-01 7.223825e-01 7.081186e-01 8.182371e-01 6.263808e-01 5.590610e-01 4.985971e-01 5.037293e-01 6.776915e-01 3.434151e-01 3.254987e-04
<GCONST> 1.086384e+02
<STATE> 4
<MEAN> 39
 -7.208763e+00 -4.967138e-01 3.467791e+00 -3.927379e+00 -3.251258e+00 -8.420453e+00 -3.572623e+00 -3.926111e+00 -4.549208e+00 -7.615149e+00 -7.564174e+00 -2.417344e+00 5.500272e-01 -1.472086e-01 1.485582e-01 6.959502e-02 2.912317e-01 2.825975e-01 2.740291e-01 5.702387e-02 -6.108692e-02 5.197058e-02 1.171102e-01 2.368888e-01 -1.071686e-02 -1.124846e-02 -8.973404e-03 8.485752e-03 -7.687844e-03 3.005180e-03 4.798331e-03 -3.205023e-03 -1.135166e-02 8.120985e-03 3.240271e-02 2.940680e-02 2.324253e-02 7.842317e-03 -6.100471e-04
<VARIANCE> 39
 2.675393e+01 3.067426e+01 4.265030e+01 4.409931e+01 4.858435e+01 4.674482e+01 4.639590e+01 5.761294e+01 4.454138e+01 4.923436e+01 4.585489e+01 2.585524e+01 5.555594e-02 3.750149e-01 1.133147e+00 9.134217e-01 1.382795e+00 1.519148e+00 1.667891e+00 1.877937e+00 2.578491e+00 1.957213e+00 1.975159e+00 1.634385e+00 1.373487e+00 6.358190e-04 6.045052e-02 1.675235e-01 1.418997e-01 2.272405e-01 2.535171e-01 2.892051e-01 3.180389e-01 4.143263e-01 3.294753e-01 3.480521e-01 2.969673e-01 2.450049e-01 8.426045e-05
<GCONST> 8.327700e+01
<TRANSP> 5
 0.000000e+00 1.000000e+00 0.000000e+00 0.000000e+00 0.000000e+00
 0.000000e+00 9.452189e-01 5.478107e-02 0.000000e+00 0.000000e+00
 0.000000e+00 0.000000e+00 9.418651e-01 5.813494e-02 0.000000e+00
 0.000000e+00 0.000000e+00 0.000000e+00 9.729125e-01 2.708749e-02
 0.000000e+00 0.000000e+00 0.000000e+00 0.000000e+00 0.000000e+00
<ENDHMM>
