~o
<STREAMINFO> 1 39
<VECSIZE> 39<NULLD><MFCC_E_D_A><DIAGC>
~h "six"
<BEGINHMM>
<NUMSTATES> 5
<STATE> 2
<MEAN> 39
 -2.389507e+01 5.837465e+00 -3.081001e+00 4.677142e-01 1.091594e+00 -1.739407e+00 2.863370e+00 -1.517439e+00 8.725008e-01 -2.005931e+00 1.162163e+00 -1.230233e+00 4.546086e-01 -5.210474e-01 3.005605e-01 -1.575383e-01 4.333786e-02 -1.152792e-01 -2.856020e-02 5.547442e-02 -5.745135e-02 -4.753272e-02 7.925644e-03 6.713846e-02 -1.690642e-02 1.543955e-02 1.708409e-01 -7.626341e-02 9.442563e-02 -6.919959e-02 -6.543137e-02 -7.002687e-02 -4.806380e-02 -3.152643e-02 -3.233118e-02 -1.661058e-02 -3.492995e-02 1.467996e-02 -1.222611e-03
<VARIANCE> 39
 6.115998e+01 3.060220e+01 2.478899e+01 2.170623e+01 2.525809e+01 2.551248e+01 2.788189e+01 2.409151e+01 2.174117e+01 2.038884e+01 2.509938e+01 1.466627e+01 3.637557e-02 1.321997e+00 1.146470e+00 1.068924e+00 1.038174e+00 1.195983e+00 1.485150e+00 1.600729e+00 1.573621e+00 1.641513e+00 1.532437e+00 1.447272e+00 1.281907e+00 8.946870e-04 2.163884e-01 1.686107e-01 1.908679e-01 2.106948e-01 2.777621e-01 3.557388e-01 3.382080e-01 3.329359e-01 3.496338e-01 3.153988e-01 3.099214e-01 2.631597e-01 1.089239e-04
<GCONST> 7.884751e+01
<STATE> 3
<MEAN> 39
 -1.388815e+01 -1.170488e+00 5.480559e+00 -8.074698e+00 -8.494976e+00 -8.816568e+00 -6.228437e-01 -4.818868e+00 -2.511185e+00 -8.381591e-02 -2.574477e+00 -1.442249e+00 5.019141e-01 1.973397e-01 -2.095425e-01 9.204901e-02 7.577537e-02 -7.972476e-02 -1.539774e-01 2.229774e-03 8.665422e-02 4.746393e-02 -2.549396e-02 3.850127e-03 4.848914e-02 -2.718840e-03 -1.394697e-01 7.766554e-02 -6.715518e-02 5.510271e-02 7.622066e-02 1.133640e-01 4.557699e-02 4.594718e-02 1.803121e-02 -1.360568e-03 2.989253e-02 -3.669568e-03 -2.392033e-04
<VARIANCE> 39
 5.341027e+01 3.928468e+01 6.282572e+01 7.874332e+01 8.951056e+01 5.899966e+01 4.286272e+01 5.982704e+01 4.479599e+01 3.638778e+01 4.251465e+01 2.661336e+01 7.385699e-02 4.364779e+00 3.317813e+00 3.935104e+00 5.069993e+00 6.562243e+00 5.577096e+00 3.572489e+00 4.272116e+00 3.273160e+00 3.058574e+00 3.220923e+00 2.225498e+00 3.857141e-03 4.925169e-01 5.157638e-01 5.299165e-01 6.062819e-01 8.651500e-01 8.678720e-01 6.256911e-01 7.027498e-01 5.463722e-01 5.485237e-01 5.384966e-01 4.114766e-01 4.455589e-04
<GCONST> 1.127409e+02
<STATE> 4
<MEAN> 39
 -2.133179e+01 3.553533e+00 -1.669996e+00 6.128088e-01 1.291061e+00 -3.440243e+00 3.240046e+00 -3.884459e-01 1.246472e+00 -2.629906e+00 9.649485e-01 -3.130452e-01 4.142788e-01 2.212357e-01 -6.326772e-02 4.148145e-02 -7.933243e-02 1.693094e-01 1.498013e-01 -5.110110e-02 -1.176367e-02 -3.451852e-03 -5.189665e-03 -6.435743e-02 -2.036716e-02 -7.358547e-03 5.833386e-02 -4.166895e-02 1.535536e-02 -8.611609e-03 -1.247284e-02 -2.346332e-02 -2.777227e-02 -1.390815e-02 -1.157878e-03 1.836131e-02 -1.331363e-02 -3.267232e-03 -3.042719e-04
<VARIANCE> 39
 6.842786e+01 3.194677e+01 2.526722e+01 2.485344e+01 3.281279e+01 3.230447e+01 3.200838e+01 2.732087e+01 2.431430e+01 2.440712e+01 2.588405e+01 1.698503e+01 3.623410e-02 1.367679e+00 1.200228e+00 9.766935e-01 1.095483e+00 1.428349e+00 1.903174e+00 1.735026e+00 1.822942e+00 1.669421e+00 1.654693e+00 1.566788e+00 1.351556e+00 7.212226e-04 1.685519e-01 1.755791e-01 1.803572e-01 2.096898e-01 2.696623e-01 3.489841e-01 3.421187e-01 3.720767e-01 3.335115e-01 3.318861e-01 3.133172e-01 2.706458e-01 9.927166e-05
<GCONST> 8.084409e+01
<TRANSP> 5
 0.000000e+00 1.000000e+00 0.000000e+00 0.000000e+00 0.000000e+00
 0.000000e+00 9.473578e-01 5.264222e-02 0.000000e+00 0.000000e+00
 0.000000e+00 0.000000e+00 9.594780e-01 4.052197e-02 0.000000e+00
 0.000000e+00 0.000000e+00 0.000000e+00 9.693877e-01 3.061229e-02
 0.000000e+00 0.000000e+00 0.000000e+00 0.000000e+00 0.000000e+00
<ENDHMM>
