~o
<STREAMINFO> 1 39
<VECSIZE> 39<NULLD><MFCC_E_D_A><DIAGC>
~h "three"
<BEGINHMM>
<NUMSTATES> 5
<STATE> 2
<MEAN> 39
 -1.327485e+01 -1.958249e+00 3.275163e+00 -2.643638e+00 -2.661129e+00 -6.786443e+00 -2.629551e+00 -1.039331e+00 -1.467731e+00 -2.716699e+00 -1.372404e+00 -1.542133e+00 4.870206e-01 2.569592e-01 -1.963530e-01 4.729283e-01 -3.907644e-01 -6.996483e-01 -4.782876e-01 -3.496218e-01 -2.178295e-01 -4.714931e-01 8.410163e-02 -1.338544e-01 -1.546988e-01 1.696735e-02 -7.396015e-03 3.307222e-02 5.636203e-02 -6.504059e-02 9.225939e-03 5.750030e-02 -5.553390e-03 -5.369225e-02 1.971285e-04 4.494872e-02 -3.028762e-02 -4.248572e-03 -6.239170e-04
<VARIANCE> 39
 8.425380e+01 4.355069e+01 4.704610e+01 3.949457e+01 7.117367e+01 7.894678e+01 6.790416e+01 4.029149e+01 4.880904e+01 2.853981e+01 3.016813e+01 2.248629e+01 5.333158e-02 2.972033e+00 1.759241e+00 2.756261e+00 2.370267e+00 2.814024e+00 3.568689e+00 4.092709e+00 3.458692e+00 2.871757e+00 2.517560e+00 2.409806e+00 1.942539e+00 1.331963e-03 3.943186e-01 2.912405e-01 4.192401e-01 3.873970e-01 4.977834e-01 6.134317e-01 7.170111e-01 6.602376e-01 5.436205e-01 4.606133e-01 4.779041e-01 3.754562e-01 2.344116e-04
<GCONST> 1.027997e+02
<STATE> 3
<MEAN> 39
 -9.779525e+00 2.303204e+00 1.626765e+01 -1.561486e+01 -1.207630e+01 -8.305661e+00 -1.243878e+01 -1.085387e+01 -8.268340e+00 -5.529274e-01 -7.564689e+00 -3.243197e+00 6.888936e-01 -1.573030e-01 5.531375e-01 2.587431e-02 -2.794081e-03 4.490392e-01 4.359909e-01 -2.410860e-01 -2.986725e-01 2.752386e-01 -1.897960e-01 -2.173554e-01 1.274611e-01 -7.188048e-03 4.038376e-02 -6.060972e-02 -1.024342e-01 1.518127e-01 3.947594e-02 -3.402794e-02 3.877655e-02 6.573950e-02 1.006122e-02 -9.207091e-02 2.615745e-02 1.338801e-03 -8.744710e-04
<VARIANCE> 39
 2.219001e+01 3.668547e+01 4.923190e+01 5.343635e+01 5.390535e+01 3.792969e+01 4.766715e+01 3.711969e+01 4.330280e+01 3.600125e+01 3.756942e+01 3.518276e+01 2.490917e-02 2.175343e-01 5.809521e-01 6.787108e-01 1.244772e+00 9.633982e-01 9.687250e-01 1.153531e+00 1.238514e+00 1.172948e+00 1.248928e+00 1.093960e+00 9.494175e-01 7.490074e-05 2.402403e-02 5.469007e-02 1.035217e-01 1.379350e-01 1.559339e-01 1.642869e-01 1.927766e-01 1.992969e-01 2.110258e-01 2.195381e-01 1.820849e-01 1.676280e-01 8.608211e-06
<GCONST> 6.514111e+01
<STATE> 4
<MEAN> 39
 -1.234319e+01 1.437389e+00 8.601727e+00 -4.981733e+00 -5.775923e-01 -5.423983e-01 -3.472002e+00 -6.530406e+00 -1.813123e+00 -3.176980e+00 -4.255994e+00 -1.660545e+00 3.651090e-01 -1.805252e-01 -4.306838e-01 -7.466410e-01 6.562606e-01 6.554877e-01 3.802912e-01 8.762927e-01 6.669251e-01 4.524196e-01 6.186611e-02 4.573244e-01 8.494731e-02 -2.467009e-02 -3.169960e-03 -1.047114e-02 3.851214e-03 -6.861117e-02 -3.168331e-02 -4.384382e-02 -1.431251e-02 4.736316e-02 6.051290e-03 6.288514e-02 5.067667e-02 2.714580e-02 2.989447e-04
<VARIANCE> 39
 3.513924e+01 2.372585e+01 6.407381e+01 5.261598e+01 4.682240e+01 3.987134e+01 5.643005e+01 5.620073e+01 3.762881e+01 3.472237e+01 4.399154e+01 2.746207e+01 4.983258e-02 6.036630e-01 9.988930e-01 1.259916e+00 1.956571e+00 1.977186e+00 2.417450e+00 2.763300e+00 2.469467e+00 2.341473e+00 2.222130e+00 2.350742e+00 2.028976e+00 1.083290e-03 9.567714e-02 1.605255e-01 2.061726e-01 2.884106e-01 3.094439e-01 3.850730e-01 4.419133e-01 4.426436e-01 4.158591e-01 4.069330e-01 4.096661e-01 3.765508e-01 1.477020e-04
<GCONST> 9.043458e+01
<TRANSP> 5
 0.000000e+00 1.000000e+00 0.000000e+00 0.000000e+00 0.000000e+00
 0.000000e+00 9.642933e-01 3.570671e-02 0.000000e+00 0.000000e+00
 0.000000e+00 0.000000e+00 9.512529e-01 4.874717e-02 0.000000e+00
 0.000000e+00 0.000000e+00 0.000000e+00 9.314614e-01 6.853864e-02
 0.000000e+00 0.000000e+00 0.000000e+00 0.000000e+00 0.000000e+00
<ENDHMM>
