~o
<STREAMINFO> 1 39
<VECSIZE> 39<NULLD><MFCC_E_D_A><DIAGC>
~h "two"
<BEGINHMM>
<NUMSTATES> 5
<STATE> 2
<MEAN> 39
 -1.788513e+01 4.415035e-01 5.555281e+00 -7.772286e+00 -1.312128e+00 -6.628401e+00 -1.872340e-01 -1.849758e+00 -4.254004e+00 -5.386747e-01 -7.261270e-02 -1.488585e+00 5.664439e-01 4.767169e-01 -8.541297e-02 5.547372e-01 -3.725555e-01 -9.781560e-01 -9.349163e-01 -5.838423e-01 -3.249060e-01 -7.306445e-01 2.451654e-02 -2.608039e-01 -8.437087e-02 2.559874e-02 9.681510e-02 -4.734090e-02 -1.139577e-02 4.550657e-02 -2.160201e-02 5.688304e-03 -3.273680e-02 9.216285e-03 6.109246e-03 6.022738e-03 -2.669886e-02 5.023215e-03 -3.020992e-03
<VARIANCE> 39
 8.277110e+01 2.848561e+01 5.115850e+01 4.511430e+01 7.239713e+01 6.066598e+01 5.604638e+01 4.831747e+01 5.187289e+01 3.099024e+01 3.444113e+01 2.006608e+01 5.390895e-02 5.493474e+00 2.663365e+00 1.900608e+00 2.752991e+00 3.710134e+00 3.636781e+00 4.845826e+00 3.428794e+00 2.943529e+00 2.681242e+00 2.864110e+00 1.798552e+00 3.545586e-03 7.431775e-01 4.561417e-01 3.156992e-01 5.211042e-01 6.343618e-01 6.636983e-01 8.290830e-01 6.106410e-01 5.452559e-01 5.182114e-01 5.148329e-01 3.386436e-01 6.295642e-04
<GCONST> 1.074789e+02
<STATE> 3
<MEAN> 39
 -5.777058e+00 -3.166333e-01 7.635715e+00 -8.501186e+00 -9.840228e+00 -1.592261e+01 -1.144226e+01 -6.660122e+00 -1.054017e+01 -6.733549e-01 -5.444764e+00 -3.091553e+00 6.944432e-01 1.332974e-01 2.719863e-01 -3.079072e-01 1.849569e-01 3.729963e-01 2.714997e-01 -7.952833e-02 -1.229256e-01 1.334415e-01 -6.592654e-02 -4.483261e-02 -1.721196e-02 -6.675091e-03 -2.101028e-02 2.536589e-02 -7.016574e-03 3.924284e-02 4.396399e-02 5.951713e-02 4.632591e-02 -2.733536e-02 1.243621e-02 -4.231384e-02 2.385622e-03 -5.513056e-04 -1.145192e-03
<VARIANCE> 39
 2.682622e+01 3.421772e+01 7.405548e+01 5.055763e+01 5.121128e+01 5.442329e+01 4.747131e+01 5.382217e+01 5.322075e+01 3.910677e+01 3.308231e+01 3.286438e+01 2.606161e-02 1.243177e-01 3.314407e-01 4.758180e-01 5.352319e-01 7.536421e-01 9.198861e-01 9.743368e-01 1.142991e+00 1.060169e+00 1.138864e+00 1.019146e+00 9.135838e-01 5.977452e-05 1.913327e-02 4.940365e-02 6.545909e-02 8.532425e-02 1.190477e-01 1.394809e-01 1.496696e-01 1.682309e-01 1.610848e-01 1.763468e-01 1.558861e-01 1.452426e-01 9.160695e-06
<GCONST> 6.018592e+01
<STATE> 4
<MEAN> 39
 -8.852132e+00 1.272929e+00 2.619112e+00 -2.875170e+00 7.799305e-01 -3.874405e+00 -3.695051e+00 -5.747040e+00 -3.836381e+00 -2.965092e+00 -3.321655e+00 -1.942997e+00 3.916453e-01 -4.689697e-01 -2.898531e-01 -1.465350e-01 3.700118e-01 5.322514e-01 7.042862e-01 7.499884e-01 4.450588e-01 5.623743e-01 -4.943585e-02 2.380984e-01 1.149835e-01 -2.489260e-02 -1.097623e-02 -4.598600e-02 -6.112589e-03 -4.294596e-02 -3.073267e-02 -3.355061e-02 -1.401464e-03 4.991206e-02 2.856373e-02 6.050823e-02 3.855090e-02 2.187835e-02 7.006596e-05
<VARIANCE> 39
 3.346608e+01 2.510572e+01 4.454160e+01 4.919570e+01 3.846058e+01 4.208757e+01 5.177734e+01 4.995454e+01 5.557895e+01 3.552388e+01 3.450623e+01 2.569603e+01 5.091023e-02 6.585851e-01 9.098967e-01 9.214053e-01 1.591190e+00 1.764457e+00 2.069176e+00 2.363515e+00 2.383516e+00 2.521189e+00 2.412415e+00 2.063825e+00 1.786478e+00 9.850104e-04 9.943628e-02 1.380616e-01 1.531972e-01 2.442569e-01 2.734036e-01 3.092480e-01 3.883089e-01 4.153928e-01 4.361731e-01 4.339734e-01 3.695865e-01 3.225607e-01 1.436304e-04
<GCONST> 8.732154e+01
<TRANSP> 5
 0.000000e+00 1.000000e+00 0.000000e+00 0.000000e+00 0.000000e+00
 0.000000e+00 9.410476e-01 5.895238e-02 0.000000e+00 0.000000e+00
 0.000000e+00 0.000000e+00 9.554002e-01 4.459981e-02 0.000000e+00
 0.000000e+00 0.000000e+00 0.000000e+00 9.310255e-01 6.897452e-02
 0.000000e+00 0.000000e+00 0.000000e+00 0.000000e+00 0.000000e+00
<ENDHMM>
