~o
<STREAMINFO> 1 39
<VECSIZE> 39<NULLD><MFCC_E_D_A><DIAGC>
~h "zero"
<BEGINHMM>
<NUMSTATES> 5
<STATE> 2
<MEAN> 39
 -1.805945e+01 5.667434e+00 2.049362e+00 -3.100538e+00 -2.865407e+00 -7.478941e+00 -1.305473e+00 -6.132703e+00 -3.233319e+00 -3.643271e+00 -2.494249e+00 -3.029516e+00 5.292045e-01 2.468297e-01 -1.598577e-01 4.221081e-01 -5.502185e-01 -6.949901e-01 -4.844854e-01 -3.635271e-01 -2.419050e-01 -3.856025e-01 1.339148e-01 -1.448839e-01 -8.005604e-02 2.130375e-02 5.359748e-02 -8.803561e-02 2.508781e-02 -4.208878e-02 -1.397979e-02 5.279612e-02 -9.722694e-03 4.696306e-02 -2.301623e-03 2.560754e-02 -5.829325e-03 -4.393056e-03 -9.522203e-04
<VARIANCE> 39
 8.518923e+01 5.071933e+01 6.254541e+01 6.498497e+01 7.182385e+01 6.017147e+01 5.722259e+01 4.454979e+01 4.672428e+01 3.572907e+01 3.421663e+01 2.388607e+01 4.378280e-02 3.518420e+00 2.870750e+00 3.242876e+00 3.180420e+00 3.671435e+00 3.942825e+00 3.557331e+00 3.036591e+00 2.670820e+00 2.532151e+00 2.144060e+00 1.877632e+00 1.317176e-03 4.250941e-01 3.260278e-01 3.837246e-01 3.942476e-01 5.830825e-01 7.378744e-01 6.162481e-01 5.538371e-01 4.741029e-01 4.390826e-01 3.811303e-01 3.433916e-01 1.908975e-04
<GCONST> 1.039914e+02
<STATE> 3
<MEAN> 39
 -3.055798e+00 -6.000444e+00 8.648595e-01 -1.043909e+01 -9.078839e+00 -1.161877e+01 -8.539804e+00 -2.457472e+00 -5.146343e+00 -1.665076e+00 -6.230927e+00 -5.879694e+00 7.008096e-01 1.537276e-01 7.483527e-02 -3.653511e-01 8.628784e-02 3.273656e-01 2.560650e-01 2.964588e-03 1.368272e-02 1.091421e-01 -4.353837e-02 1.817983e-02 -6.092164e-02 -5.000629e-03 -2.851104e-02 5.089656e-02 5.198486e-03 5.192489e-02 3.081300e-02 2.908603e-03 1.747168e-02 -3.310234e-02 -9.221151e-03 -3.676615e-02 1.216401e-02 1.680030e-02 -8.236542e-04
<VARIANCE> 39
 2.828472e+01 4.830904e+01 9.435143e+01 5.114985e+01 6.346407e+01 5.629553e+01 5.292166e+01 7.688475e+01 4.509769e+01 4.381655e+01 3.923457e+01 3.243910e+01 2.268562e-02 3.301136e-01 8.489855e-01 1.172751e+00 1.408717e+00 1.268202e+00 1.401372e+00 1.666290e+00 2.025872e+00 1.662249e+00 1.595812e+00 1.346766e+00 1.108342e+00 1.010227e-04 3.479335e-02 8.124247e-02 1.221603e-01 1.775424e-01 1.925007e-01 2.103924e-01 2.490994e-01 2.695689e-01 2.592146e-01 2.403204e-01 2.128811e-01 1.701485e-01 1.208291e-05
<GCONST> 7.499592e+01
<STATE> 4
<MEAN> 39
 -8.883924e+00 7.808589e-03 1.634869e+00 -4.078179e+00 1.497703e+00 -1.549444e+00 -2.259077e+00 -4.799614e+00 -2.946453e+00 -3.014167e+00 -2.827795e+00 -2.543225e+00 3.710230e-01 -5.305448e-01 -7.312790e-02 1.771792e-01 5.960990e-01 4.307725e-01 3.472753e-01 4.923121e-01 3.413479e-01 3.178405e-01 -9.758069e-02 1.585475e-01 2.188028e-01 -2.139214e-02 -8.384726e-05 -6.204699e-02 -3.963468e-02 -4.692265e-02 -2.544525e-02 -3.113309e-02 5.698699e-03 6.970537e-02 7.111704e-02 8.007994e-02 2.001318e-02 1.298446e-02 5.981914e-05
<VARIANCE> 39
 3.673545e+01 2.406780e+01 4.432221e+01 5.706476e+01 3.830173e+01 3.699213e+01 4.478379e+01 3.937627e+01 4.186105e+01 3.624818e+01 3.325647e+01 2.478249e+01 4.031256e-02 7.044872e-01 9.090773e-01 1.132267e+00 1.797072e+00 1.604549e+00 1.935589e+00 2.105872e+00 2.088900e+00 2.368005e+00 2.338875e+00 1.881541e+00 1.716549e+00 8.883324e-04 9.563735e-02 1.339861e-01 1.795499e-01 2.580886e-01 2.564325e-01 3.070147e-01 3.592157e-01 3.748301e-01 4.160506e-01 4.159443e-01 3.340079e-01 3.147376e-01 1.193529e-04
<GCONST> 8.557808e+01
<TRANSP> 5
 0.000000e+00 1.000000e+00 0.000000e+00 0.000000e+00 0.000000e+00
 0.000000e+00 9.560428e-01 4.395718e-02 0.000000e+00 0.000000e+00
 0.000000e+00 0.000000e+00 9.697024e-01 3.029765e-02 0.000000e+00
 0.000000e+00 0.000000e+00 0.000000e+00 9.330195e-01 6.698053e-02
 0.000000e+00 0.000000e+00 0.000000e+00 0.000000e+00 0.000000e+00
<ENDHMM>
